{"learner":{"attributes":{"scikit_learn":"{\"_estimator_type\": \"classifier\"}"},"feature_names":["OD280/OD315 of diluted wines","Color intensity","Flavanoids","Proline"],"feature_types":["float","float","float","int"],"gradient_booster":{"model":{"gbtree_model_param":{"num_parallel_tree":"1","num_trees":"300"},"iteration_indptr":[0,3,6,9,12,15,18,21,24,27,30,33,36,39,42,45,48,51,54,57,60,63,66,69,72,75,78,81,84,87,90,93,96,99,102,105,108,111,114,117,120,123,126,129,132,135,138,141,144,147,150,153,156,159,162,165,168,171,174,177,180,183,186,189,192,195,198,201,204,207,210,213,216,219,222,225,228,231,234,237,240,243,246,249,252,255,258,261,264,267,270,273,276,279,282,285,288,291,294,297,300],"tree_info":[0,1,2,0,1,2,0,1,2,0,1,2,0,1,2,0,1,2,0,1,2,0,1,2,0,1,2,0,1,2,0,1,2,0,1,2,0,1,2,0,1,2,0,1,2,0,1,2,0,1,2,0,1,2,0,1,2,0,1,2,0,1,2,0,1,2,0,1,2,0,1,2,0,1,2,0,1,2,0,1,2,0,1,2,0,1,2,0,1,2,0,1,2,0,1,2,0,1,2,0,1,2,0,1,2,0,1,2,0,1,2,0,1,2,0,1,2,0,1,2,0,1,2,0,1,2,0,1,2,0,1,2,0,1,2,0,1,2,0,1,2,0,1,2,0,1,2,0,1,2,0,1,2,0,1,2,0,1,2,0,1,2,0,1,2,0,1,2,0,1,2,0,1,2,0,1,2,0,1,2,0,1,2,0,1,2,0,1,2,0,1,2,0,1,2,0,1,2,0,1,2,0,1,2,0,1,2,0,1,2,0,1,2,0,1,2,0,1,2,0,1,2,0,1,2,0,1,2,0,1,2,0,1,2,0,1,2,0,1,2,0,1,2,0,1,2,0,1,2,0,1,2,0,1,2,0,1,2,0,1,2,0,1,2,0,1,2,0,1,2,0,1,2,0,1,2,0,1,2,0,1,2,0,1,2,0,1,2,0,1,2,0,1,2,0,1,2,0,1,2],"trees":[{"base_weights":[-1.2552346E-2,-6.953643E-1,1.120879E0,-2.1984737E-1,-3.913044E-1,-4.2857146E-1,1.4034334E0,-1.894737E-1,1.2857142E-1,-1.7027028E-1,-7.663455E-9,1.2857142E-1,4.3167424E-1],"categories":[],"categories_nodes":[],"categories_segments":[],"categories_sizes":[],"default_left":[0,0,0,0,0,0,0,0,0,0,0,0,0],"id":0,"left_children":[1,3,5,-1,7,9,11,-1,-1,-1,-1,-1,-1],"loss_changes":[6.2435085E1,2.865486E-1,1.3881527E1,0E0,1.7809744E0,3.2432437E-1,2.787857E-1,0E0,0E0,0E0,0E0,0E0,0E0],"parents":[2147483647,0,0,1,1,2,2,4,4,5,5,6,6],"right_children":[2,4,6,-1,8,10,12,-1,-1,-1,-1,-1,-1],"split_conditions":[7.6E2,2.61E0,2.29E0,-2.1984737E-1,6.8E2,2.48E0,3.6E0,-1.894737E-1,1.2857142E-1,-1.7027028E-1,-7.663455E-9,1.2857142E-1,4.3167424E-1],"split_indices":[3,2,2,0,3,0,1,0,0,0,0,0,0],"split_type":[0,0,0,0,0,0,0,0,0,0,0,0,0],"sum_hessian":[7.8666664E1,4.9333332E1,2.9333332E1,4.2666664E1,6.666666E0,4.444444E0,2.4888887E1,5.333333E0,1.3333333E0,3.111111E0,1.3333333E0,1.3333333E0,2.3555553E1],"tree_param":{"num_deleted":"0","num_feature":"4","num_nodes":"13","size_leaf_vector":"1"}},{"base_weights":[1.5062757E-1,1.3132075E0,-5.206074E-1,4.3261805E-1,2.926829E-1,3.287671E-1,-6.6498744E-1,2.8800002E-1,-1.4400001E-1,-1.7027028E-1,3E-1,-7.663455E-9,-6.8571436E-1,-2.1233247E-1,-7.663455E-9],"categories":[],"categories_nodes":[],"categories_segments":[],"categories_sizes":[],"default_left":[0,0,0,0,0,0,0,0,0,0,0,0,0,0,0],"id":1,"left_children":[1,3,5,-1,7,9,11,-1,-1,-1,-1,-1,13,-1,-1],"loss_changes":[6.2852695E1,3.4497948E0,6.500146E0,0E0,2.809756E0,5.447612E0,6.0798836E-1,0E0,0E0,0E0,0E0,0E0,6.471081E-1,0E0,0E0],"parents":[2147483647,0,0,1,1,2,2,4,4,5,5,6,6,12,12],"right_children":[2,4,6,-1,8,10,12,-1,-1,-1,-1,-1,14,-1,-1],"split_conditions":[3.84E0,7.6E2,5.2E2,4.3261805E-1,3.38E0,1.39E0,3.93E0,2.8800002E-1,-1.4400001E-1,-1.7027028E-1,3E-1,-7.663455E-9,3.74E0,-2.1233247E-1,-7.663455E-9],"split_indices":[1,3,3,0,1,2,1,0,0,0,0,0,2,0,0],"split_type":[0,0,0,0,0,0,0,0,0,0,0,0,0,0,0],"sum_hessian":[7.8666664E1,2.8444443E1,5.0222218E1,2.4888887E1,3.5555553E0,7.1111107E0,4.3111107E1,1.7777777E0,1.7777777E0,3.111111E0,3.9999998E0,1.3333333E0,4.1777775E1,4.0444443E1,1.3333333E0],"tree_param":{"num_deleted":"0","num_feature":"4","num_nodes":"15","size_leaf_vector":"1"}},{"base_weights":[-1.3807537E-1,1.1474655E0,-6.836936E-1,-1.5517244E-1,1.3401015E0,2.5714284E-1,-2.2092558E-1,4.2810813E-1,-7.663455E-9],"categories":[],"categories_nodes":[],"categories_segments":[],"categories_sizes":[],"default_left":[0,0,0,0,0,0,0,0,0],"id":2,"left_children":[1,3,5,-1,7,-1,-1,-1,-1],"loss_changes":[5.6663864E1,8.425171E0,5.2258224E0,0E0,2.5498161E0,0E0,0E0,0E0,0E0],"parents":[2147483647,0,0,1,1,2,2,4,4],"right_children":[2,4,6,-1,8,-1,-1,-1,-1],"split_conditions":[2.12E0,3.3E0,6.1E-1,-1.5517244E-1,1.41E0,2.5714284E-1,-2.2092558E-1,4.2810813E-1,-7.663455E-9],"split_indices":[0,1,2,0,2,0,0,0,0],"split_type":[0,0,0,0,0,0,0,0,0],"sum_hessian":[7.8666664E1,2.311111E1,5.5555553E1,2.222222E0,2.0888887E1,1.3333333E0,5.4222218E1,1.9555553E1,1.3333333E0],"tree_param":{"num_deleted":"0","num_feature":"4","num_nodes":"9","size_leaf_vector":"1"}},{"base_weights":[-1.2238424E-2,-6.182216E-1,7.9194295E-1,-1.9117121E-1,-2.0267166E-1,-1.5796965E-1,9.507855E-1,-1.0729313E-1,1.0730171E-2,-9.093839E-3,2.9973802E-1],"categories":[],"categories_nodes":[],"categories_segments":[],"categories_sizes":[],"default_left":[0,0,0,0,0,0,0,0,0,0,0],"id":3,"left_children":[1,3,5,-1,7,-1,9,-1,-1,-1,-1],"loss_changes":[3.7407234E1,2.1666908E-1,7.410509E0,0E0,1.3773875E-1,0E0,1.443716E0,0E0,0E0,0E0,0E0],"parents":[2147483647,0,0,1,1,2,2,4,4,6,6],"right_children":[2,4,6,-1,8,-1,10,-1,-1,-1,-1],"split_conditions":[7.6E2,7.35E2,2.17E0,-1.9117121E-1,1.82E0,-1.5796965E-1,3.58E0,-1.0729313E-1,1.0730171E-2,-9.093839E-3,2.9973802E-1],"split_indices":[3,3,2,0,0,0,1,0,0,0,0],"split_type":[0,0,0,0,0,0,0,0,0,0,0],"sum_hessian":[7.4756386E1,4.276356E1,3.1992828E1,4.0382175E1,2.3813848E0,3.1909132E0,2.8801916E1,1.1403084E0,1.2410762E0,1.370014E0,2.7431902E1],"tree_param":{"num_deleted":"0","num_feature":"4","num_nodes":"11","size_leaf_vector":"1"}},{"base_weights":[1.21036895E-1,9.1512924E-1,-4.470021E-1,2.9982558E-1,2.7093044E-1,2.6097706E-1,-5.8538735E-1,2.1864906E-1,-1.314179E-1,-3.6383238E-1,2.5839472E-1,-3.1173185E-1,-1.9558734E-1,5.476253E-3,-1.5305275E-1,1.2870361E-1,-1.722545E-1,-1.23599075E-1,1.7226554E-1],"categories":[],"categories_nodes":[],"categories_segments":[],"categories_sizes":[],"default_left":[0,0,0,0,0,0,0,0,0,0,0,0,0,0,0,0,0,0,0],"id":4,"left_children":[1,3,5,-1,7,9,11,-1,-1,13,-1,15,-1,-1,-1,17,-1,-1,-1],"loss_changes":[3.5288788E1,1.4980068E0,4.6351757E0,0E0,1.9882606E0,3.37874E0,4.9956703E-1,0E0,0E0,2.725373E-1,0E0,1.167955E0,0E0,0E0,0E0,1.2846752E0,0E0,0E0,0E0],"parents":[2147483647,0,0,1,1,2,2,4,4,5,5,6,6,9,9,11,11,15,15],"right_children":[2,4,6,-1,8,10,12,-1,-1,14,-1,16,-1,-1,-1,18,-1,-1,-1],"split_conditions":[3.84E0,3.52E0,5.2E2,2.9982558E-1,2.04E0,1.86E0,4.68E0,2.1864906E-1,-1.314179E-1,4.63E2,2.5839472E-1,7.18E2,-1.9558734E-1,5.476253E-3,-1.5305275E-1,1.28E0,-1.722545E-1,-1.23599075E-1,1.7226554E-1],"split_indices":[1,1,3,0,2,0,1,0,0,3,0,3,0,0,0,2,0,0,0],"split_type":[0,0,0,0,0,0,0,0,0,0,0,0,0,0,0,0,0,0,0],"sum_hessian":[7.632571E1,3.15747E1,4.4751007E1,2.7433752E1,4.140946E0,7.1721888E0,3.7578815E1,2.498993E0,1.6419528E0,3.7075095E0,3.4646792E0,8.4647875E0,2.9114029E1,1.2691538E0,2.438356E0,3.3509424E0,5.113845E0,1.5477477E0,1.8031948E0],"tree_param":{"num_deleted":"0","num_feature":"4","num_nodes":"19","size_leaf_vector":"1"}},{"base_weights":[-1.1339332E-1,7.6591825E-1,-6.4035505E-1,-1.6137259E-1,2.9809907E-1,-1.9827008E-1,2.595052E-2],"categories":[],"categories_nodes":[],"categories_segments":[],"categories_sizes":[],"default_left":[0,0,0,0,0,0,0],"id":5,"left_children":[1,3,5,-1,-1,-1,-1],"loss_changes":[3.4947006E1,8.943958E0,7.596569E-1,0E0,0E0,0E0,0E0],"parents":[2147483647,0,0,1,1,2,2],"right_children":[2,4,6,-1,-1,-1,-1],"split_conditions":[1.41E0,3.7E0,7.9E0,-1.6137259E-1,2.9809907E-1,-1.9827008E-1,2.595052E-2],"split_indices":[2,1,1,0,0,0,0],"split_type":[0,0,0,0,0,0,0],"sum_hessian":[7.336179E1,2.7320366E1,4.6041428E1,3.8600333E0,2.3460333E1,4.486405E1,1.1773762E0],"tree_param":{"num_deleted":"0","num_feature":"4","num_nodes":"7","size_leaf_vector":"1"}},{"base_weights":[-1.1734246E-2,-5.622092E-1,6.379572E-1,-1.8131737E-1,-2.6903346E-1,-1.4082262E-1,7.6015234E-1,-1.556628E-1,1.1722387E-1,-5.7502342E-3,2.3969647E-1],"categories":[],"categories_nodes":[],"categories_segments":[],"categories_sizes":[],"default_left":[0,0,0,0,0,0,0,0,0,0,0],"id":6,"left_children":[1,3,5,-1,7,-1,9,-1,-1,-1,-1],"loss_changes":[2.4424303E1,2.9445076E-1,4.596529E0,0E0,1.2661225E0,0E0,8.809147E-1,0E0,0E0,0E0,0E0],"parents":[2147483647,0,0,1,1,2,2,4,4,6,6],"right_children":[2,4,6,-1,8,-1,10,-1,-1,-1,-1],"split_conditions":[7.6E2,2.61E0,2.17E0,-1.8131737E-1,6.8E2,-1.4082262E-1,3.58E0,-1.556628E-1,1.1722387E-1,-5.7502342E-3,2.3969647E-1],"split_indices":[3,2,2,0,3,0,1,0,0,0,0],"split_type":[0,0,0,0,0,0,0,0,0,0,0],"sum_hessian":[6.629034E1,3.5958138E1,3.0332197E1,3.0507233E1,5.450903E0,2.7320583E0,2.7600138E1,4.108627E0,1.3422759E0,1.3341529E0,2.6265985E1],"tree_param":{"num_deleted":"0","num_feature":"4","num_nodes":"11","size_leaf_vector":"1"}},{"base_weights":[1.0416998E-1,7.349239E-1,-3.9699778E-1,2.4038962E-1,2.1501642E-1,2.1143414E-1,-5.302361E-1,1.7941871E-1,-1.1973072E-1,-3.224556E-1,2.063901E-1,-5.5291164E-1,1.0680958E-2,6.4989696E-3,-1.3900863E-1,7.498701E-3,-1.7310864E-1],"categories":[],"categories_nodes":[],"categories_segments":[],"categories_sizes":[],"default_left":[0,0,0,0,0,0,0,0,0,0,0,0,0,0,0,0,0],"id":7,"left_children":[1,3,5,-1,7,9,11,-1,-1,13,-1,15,-1,-1,-1,-1,-1],"loss_changes":[2.2308681E1,9.0397644E-1,3.3110309E0,0E0,1.3907943E0,2.2072625E0,4.3869114E-1,0E0,0E0,2.2151124E-1,0E0,4.5288086E-1,0E0,0E0,0E0,0E0,0E0],"parents":[2147483647,0,0,1,1,2,2,4,4,5,5,6,6,9,9,11,11],"right_children":[2,4,6,-1,8,10,12,-1,-1,14,-1,16,-1,-1,-1,-1,-1],"split_conditions":[3.84E0,3.52E0,5.2E2,2.4038962E-1,2.04E0,1.86E0,3.74E0,1.7941871E-1,-1.1973072E-1,4.63E2,2.063901E-1,3.93E0,1.0680958E-2,6.4989696E-3,-1.3900863E-1,7.498701E-3,-1.7310864E-1],"split_indices":[1,1,3,0,2,0,2,0,0,3,0,1,0,0,0,0,0],"split_type":[0,0,0,0,0,0,0,0,0,0,0,0,0,0,0,0,0],"sum_hessian":[6.8648766E1,3.01883E1,3.8460464E1,2.6290632E1,3.8976676E0,6.803849E0,3.1656614E1,2.4165392E0,1.4811285E0,3.3613012E0,3.4425483E0,3.045885E1,1.1977632E0,1.2223535E0,2.1389477E0,1.2187232E0,2.9240128E1],"tree_param":{"num_deleted":"0","num_feature":"4","num_nodes":"17","size_leaf_vector":"1"}},{"base_weights":[-9.903783E-2,6.24409E-1,-5.8740664E-1,-1.444351E-1,2.393917E-1,-1.8302691E-1,2.6082518E-2],"categories":[],"categories_nodes":[],"categories_segments":[],"categories_sizes":[],"default_left":[0,0,0,0,0,0,0],"id":8,"left_children":[1,3,5,-1,-1,-1,-1],"loss_changes":[2.343264E1,5.5271378E0,6.57094E-1,0E0,0E0,0E0,0E0],"parents":[2147483647,0,0,1,1,2,2],"right_children":[2,4,6,-1,-1,-1,-1],"split_conditions":[1.41E0,3.7E0,7.9E0,-1.444351E-1,2.393917E-1,-1.8302691E-1,2.6082518E-2],"split_indices":[2,1,1,0,0,0,0],"split_type":[0,0,0,0,0,0,0],"sum_hessian":[6.428525E1,2.579507E1,3.849018E1,3.258649E0,2.253642E1,3.7329807E1,1.1603707E0],"tree_param":{"num_deleted":"0","num_feature":"4","num_nodes":"7","size_leaf_vector":"1"}},{"base_weights":[-1.1812947E-2,-5.2298254E-1,5.513484E-1,-1.7028531E-1,-2.3995708E-1,-1.2652619E-1,6.552486E-1,-1.450185E-1,9.873777E-2,-2.5454385E-3,2.0726292E-1],"categories":[],"categories_nodes":[],"categories_segments":[],"categories_sizes":[],"default_left":[0,0,0,0,0,0,0,0,0,0,0],"id":9,"left_children":[1,3,5,-1,7,-1,9,-1,-1,-1,-1],"loss_changes":[1.6816832E1,2.5049686E-1,3.087656E0,0E0,9.767714E-1,0E0,6.0921955E-1,0E0,0E0,0E0,0E0],"parents":[2147483647,0,0,1,1,2,2,4,4,6,6],"right_children":[2,4,6,-1,8,-1,10,-1,-1,-1,-1],"split_conditions":[7.6E2,2.61E0,2.17E0,-1.7028531E-1,6.8E2,-1.2652619E-1,3.58E0,-1.450185E-1,9.873777E-2,-2.5454385E-3,2.0726292E-1],"split_indices":[3,2,2,0,3,0,1,0,0,0,0],"split_type":[0,0,0,0,0,0,0,0,0,0,0],"sum_hessian":[5.6416306E1,2.9610672E1,2.6805634E1,2.4708439E1,4.902232E0,2.290855E0,2.451478E1,3.5389428E0,1.3632894E0,1.287676E0,2.3227104E1],"tree_param":{"num_deleted":"0","num_feature":"4","num_nodes":"11","size_leaf_vector":"1"}},{"base_weights":[9.4687656E-2,6.0101587E-1,-3.852081E-1,6.506159E-1,-9.8497815E-2,1.3623063E-1,-5.0676185E-1,2.0765667E-1,3.0456355E-1,-1.2305429E-1,1.3870323E-1,-1.6011834E-1,1.2069962E-2,1.7419294E-1,-1.0264868E-1],"categories":[],"categories_nodes":[],"categories_segments":[],"categories_sizes":[],"default_left":[0,0,0,0,0,0,0,0,0,0,0,0,0,0,0],"id":10,"left_children":[1,3,5,7,-1,9,11,-1,13,-1,-1,-1,-1,-1,-1],"loss_changes":[1.4833497E1,1.5795288E0,2.0631762E0,1.9871521E-1,0E0,1.3899103E0,4.00939E-1,0E0,1.0626217E0,0E0,0E0,0E0,0E0,0E0,0E0],"parents":[2147483647,0,0,1,1,2,2,3,3,5,5,6,6,8,8],"right_children":[2,4,6,8,-1,10,12,-1,14,-1,-1,-1,-1,-1,-1],"split_conditions":[3.95E0,9.9E2,5.2E2,7.2E2,-9.8497815E-2,1.39E0,3.74E0,2.0765667E-1,3.52E0,-1.2305429E-1,1.3870323E-1,-1.6011834E-1,1.2069962E-2,1.7419294E-1,-1.0264868E-1],"split_indices":[1,3,3,3,0,2,2,0,1,0,0,0,0,0,0],"split_type":[0,0,0,0,0,0,0,0,0,0,0,0,0,0,0],"sum_hessian":[5.9094223E1,2.8632387E1,3.0461834E1,2.7466393E1,1.1659952E0,5.7357945E0,2.472604E1,2.3627645E1,3.8387473E0,2.047451E0,3.6883438E0,2.3587471E1,1.1385682E0,2.7619038E0,1.0768434E0],"tree_param":{"num_deleted":"0","num_feature":"4","num_nodes":"15","size_leaf_vector":"1"}},{"base_weights":[-9.078447E-2,5.4147E-1,-5.491694E-1,-1.3078447E-1,2.0653392E-1,-1.7250705E-1,2.7174134E-2],"categories":[],"categories_nodes":[],"categories_segments":[],"categories_sizes":[],"default_left":[0,0,0,0,0,0,0],"id":11,"left_children":[1,3,5,-1,-1,-1,-1],"loss_changes":[1.6297184E1,3.705731E0,5.896473E-1,0E0,0E0,0E0,0E0],"parents":[2147483647,0,0,1,1,2,2],"right_children":[2,4,6,-1,-1,-1,-1],"split_conditions":[1.41E0,3.7E0,7.9E0,-1.3078447E-1,2.0653392E-1,-1.7250705E-1,2.7174134E-2],"split_indices":[2,1,1,0,0,0,0],"split_type":[0,0,0,0,0,0,0],"sum_hessian":[5.4206852E1,2.2706425E1,3.1500427E1,2.7110915E0,1.9995333E1,3.0374102E1,1.1263264E0],"tree_param":{"num_deleted":"0","num_feature":"4","num_nodes":"7","size_leaf_vector":"1"}},{"base_weights":[-1.1629458E-2,-4.9179244E-1,4.9376243E-1,-1.6306621E-1,-2.2254735E-1,-2.7984327E-1,1.8176693E-1,-1.3220558E-1,8.412511E-2,-1.0725328E-1,-1.3885441E-2],"categories":[],"categories_nodes":[],"categories_segments":[],"categories_sizes":[],"default_left":[0,0,0,0,0,0,0,0,0,0,0],"id":12,"left_children":[1,3,5,-1,7,9,-1,-1,-1,-1,-1],"loss_changes":[1.1840516E1,2.2756767E-1,2.2325687E0,0E0,7.5179255E-1,5.047685E-2,0E0,0E0,0E0,0E0,0E0],"parents":[2147483647,0,0,1,1,2,2,4,4,5,5],"right_children":[2,4,6,-1,8,10,-1,-1,-1,-1,-1],"split_conditions":[7.6E2,6.8E2,2.29E0,-1.6306621E-1,2.55E0,2.48E0,1.8176693E-1,-1.3220558E-1,8.412511E-2,-1.0725328E-1,-1.3885441E-2],"split_indices":[3,3,2,0,2,0,0,0,0,0,0],"split_type":[0,0,0,0,0,0,0,0,0,0,0],"sum_hessian":[4.6791916E1,2.4008663E1,2.2783255E1,1.9282795E1,4.7258687E0,2.6948397E0,2.0088413E1,3.3826308E0,1.3432376E0,1.6240608E0,1.0707788E0],"tree_param":{"num_deleted":"0","num_feature":"4","num_nodes":"11","size_leaf_vector":"1"}},{"base_weights":[8.731283E-2,5.368234E-1,-3.5183188E-1,1.8680319E-1,1.0989677E-1,1.0897304E-1,-4.6852824E-1,1.5446158E-1,-1.2181049E-1,-2.7869788E-1,1.4779472E-1,-1.4946286E-1,1.2788857E-2,8.756004E-3,-1.2359994E-1],"categories":[],"categories_nodes":[],"categories_segments":[],"categories_sizes":[],"default_left":[0,0,0,0,0,0,0,0,0,0,0,0,0,0,0],"id":13,"left_children":[1,3,5,-1,7,9,11,-1,-1,13,-1,-1,-1,-1,-1],"loss_changes":[1.0157986E1,8.608184E-1,1.4572346E0,0E0,1.3496604E0,1.0439292E0,3.406701E-1,0E0,0E0,1.6267216E-1,0E0,0E0,0E0,0E0,0E0],"parents":[2147483647,0,0,1,1,2,2,4,4,5,5,6,6,9,9],"right_children":[2,4,6,-1,8,10,12,-1,-1,14,-1,-1,-1,-1,-1],"split_conditions":[3.95E0,7.2E2,5.2E2,1.8680319E-1,3.52E0,1.86E0,3.74E0,1.5446158E-1,-1.2181049E-1,4.63E2,1.4779472E-1,-1.4946286E-1,1.2788857E-2,8.756004E-3,-1.2359994E-1],"split_indices":[1,3,3,0,1,0,2,0,0,3,0,0,0,0,0],"split_type":[0,0,0,0,0,0,0,0,0,0,0,0,0,0,0],"sum_hessian":[4.950205E1,2.4352394E1,2.5149654E1,1.9893377E1,4.4590173E0,5.095393E0,2.005426E1,2.4992847E0,1.9597329E0,2.670599E0,2.4247944E0,1.8977621E1,1.0766385E0,1.0428951E0,1.6277039E0],"tree_param":{"num_deleted":"0","num_feature":"4","num_nodes":"15","size_leaf_vector":"1"}},{"base_weights":[-8.4613174E-2,4.5543653E-1,-1.6454698E-1,-1.2701789E-1,6.1160874E-1,4.608019E-2,1.8976238E-1],"categories":[],"categories_nodes":[],"categories_segments":[],"categories_sizes":[],"default_left":[0,0,0,0,0,0,0],"id":14,"left_children":[1,3,-1,-1,5,-1,-1],"loss_changes":[1.1659513E1,3.222269E0,0E0,0E0,8.252621E-2,0E0,0E0],"parents":[2147483647,0,0,1,1,4,4],"right_children":[2,4,-1,-1,6,-1,-1],"split_conditions":[1.58E0,3.84E0,-1.6454698E-1,-1.2701789E-1,4.63E2,4.608019E-2,1.8976238E-1],"split_indices":[2,1,0,0,3,0,0],"split_type":[0,0,0,0,0,0,0],"sum_hessian":[4.4544746E1,2.0590864E1,2.3953884E1,2.8487878E0,1.7742077E1,1.1398466E0,1.660223E1],"tree_param":{"num_deleted":"0","num_feature":"4","num_nodes":"7","size_leaf_vector":"1"}},{"base_weights":[-1.3471041E-2,-4.6596158E-1,4.469039E-1,-1.5662184E-1,-1.9116044E-1,-2.507954E-1,5.535038E-1,-1.2172355E-1,7.232435E-2,-9.023939E-2,-2.5958885E-2,5.0747722E-2,1.7173567E-1],"categories":[],"categories_nodes":[],"categories_segments":[],"categories_sizes":[],"default_left":[0,0,0,0,0,0,0,0,0,0,0,0,0],"id":15,"left_children":[1,3,5,-1,7,9,11,-1,-1,-1,-1,-1,-1],"loss_changes":[8.400874E0,2.1357632E-1,1.6266537E0,0E0,5.637893E-1,1.4021248E-3,3.1814575E-2,0E0,0E0,0E0,0E0,0E0,0E0],"parents":[2147483647,0,0,1,1,2,2,4,4,5,5,6,6],"right_children":[2,4,6,-1,8,10,12,-1,-1,-1,-1,-1,-1],"split_conditions":[7.6E2,6.8E2,2.29E0,-1.5662184E-1,2.55E0,8.8E2,3.6E0,-1.2172355E-1,7.232435E-2,-9.023939E-2,-2.5958885E-2,5.0747722E-2,1.7173567E-1],"split_indices":[3,3,2,0,2,3,1,0,0,0,0,0,0],"split_type":[0,0,0,0,0,0,0,0,0,0,0,0,0],"sum_hessian":[3.832804E1,1.9323421E1,1.9004622E1,1.52996E1,4.023822E0,2.3395464E0,1.6665075E1,2.7298822E0,1.2939396E0,1.1563783E0,1.1831683E0,1.2494227E0,1.5415652E1],"tree_param":{"num_deleted":"0","num_feature":"4","num_nodes":"13","size_leaf_vector":"1"}},{"base_weights":[8.377494E-2,4.960081E-1,-3.2170784E-1,1.7422919E-1,1.006223E-1,9.0688124E-2,-4.346993E-1,1.3367866E-1,-1.101026E-1,-2.4464059E-1,1.3028827E-1,-1.4387265E-1,-1.5262069E-1,7.551219E-3,-1.11523606E-1,-1.21097565E-1,6.872583E-2],"categories":[],"categories_nodes":[],"categories_segments":[],"categories_sizes":[],"default_left":[0,0,0,0,0,0,0,0,0,0,0,0,0,0,0,0,0],"id":16,"left_children":[1,3,5,-1,7,9,11,-1,-1,13,-1,15,-1,-1,-1,-1,-1],"loss_changes":[7.1620574E0,6.5088844E-1,1.0517828E0,0E0,9.6142447E-1,7.399385E-1,2.9771137E-1,0E0,0E0,1.267498E-1,0E0,5.662361E-1,0E0,0E0,0E0,0E0,0E0],"parents":[2147483647,0,0,1,1,2,2,4,4,5,5,6,6,9,9,11,11],"right_children":[2,4,6,-1,8,10,12,-1,-1,14,-1,16,-1,-1,-1,-1,-1],"split_conditions":[3.95E0,3.52E0,5.2E2,1.7422919E-1,7.18E2,1.86E0,4.68E0,1.3367866E-1,-1.101026E-1,4.63E2,1.3028827E-1,4.45E0,-1.5262069E-1,7.551219E-3,-1.11523606E-1,-1.21097565E-1,6.872583E-2],"split_indices":[1,1,3,0,3,0,1,0,0,3,0,1,0,0,0,0,0],"split_type":[0,0,0,0,0,0,0,0,0,0,0,0,0,0,0,0,0],"sum_hessian":[4.089257E1,2.0166794E1,2.0725777E1,1.6220808E1,3.9459846E0,4.4998007E0,1.6225977E1,2.2979207E0,1.6480639E0,2.4230964E0,2.0767043E0,3.8897345E0,1.2336243E1,1.0327652E0,1.3903313E0,2.244208E0,1.6455263E0],"tree_param":{"num_deleted":"0","num_feature":"4","num_nodes":"17","size_leaf_vector":"1"}},{"base_weights":[-8.017293E-2,4.175312E-1,-1.5828891E-1,-1.16208434E-1,5.5932534E-1,3.923589E-2,1.7489018E-1],"categories":[],"categories_nodes":[],"categories_segments":[],"categories_sizes":[],"default_left":[0,0,0,0,0,0,0],"id":17,"left_children":[1,3,-1,-1,5,-1,-1],"loss_changes":[8.497342E0,2.2885149E0,0E0,0E0,8.42762E-2,0E0,0E0],"parents":[2147483647,0,0,1,1,4,4],"right_children":[2,4,-1,-1,6,-1,-1],"split_conditions":[1.58E0,3.84E0,-1.5828891E-1,-1.16208434E-1,4.63E2,3.923589E-2,1.7489018E-1],"split_indices":[2,1,0,0,3,0,0],"split_type":[0,0,0,0,0,0,0],"sum_hessian":[3.6166595E1,1.71536E1,1.9012995E1,2.309859E0,1.4843742E1,1.1176112E0,1.3726131E1],"tree_param":{"num_deleted":"0","num_feature":"4","num_nodes":"7","size_leaf_vector":"1"}},{"base_weights":[-1.3934887E-2,-4.4213152E-1,4.1206887E-1,-1.5083294E-1,-1.6299993E-1,-6.654176E-2,5.156156E-1,-1.1179038E-1,6.324614E-2,4.4568338E-2,1.6104142E-1],"categories":[],"categories_nodes":[],"categories_segments":[],"categories_sizes":[],"default_left":[0,0,0,0,0,0,0,0,0,0,0],"id":18,"left_children":[1,3,5,-1,7,-1,9,-1,-1,-1,-1],"loss_changes":[6.0414476E0,1.9738436E-1,1.2051792E0,0E0,4.253275E-1,0E0,3.3698082E-2,0E0,0E0,0E0,0E0],"parents":[2147483647,0,0,1,1,2,2,4,4,6,6],"right_children":[2,4,6,-1,8,-1,10,-1,-1,-1,-1],"split_conditions":[7.6E2,6.8E2,2.29E0,-1.5083294E-1,2.55E0,-6.654176E-2,3.6E0,-1.1179038E-1,6.324614E-2,4.4568338E-2,1.6104142E-1],"split_indices":[3,3,2,0,2,0,1,0,0,0,0],"split_type":[0,0,0,0,0,0,0,0,0,0,0],"sum_hessian":[3.1120773E1,1.550156E1,1.5619214E1,1.2076557E1,3.4250033E0,2.0328388E0,1.3586375E1,2.1964362E0,1.228567E0,1.1787287E0,1.2407646E1],"tree_param":{"num_deleted":"0","num_feature":"4","num_nodes":"11","size_leaf_vector":"1"}},{"base_weights":[7.934353E-2,1.6401133E-1,-2.33319E-1,1.736948E-2,-1.4834823E-1,-1.2255732E-1,4.1609296E-1,2.8231263E-2,1.4029405E-1],"categories":[],"categories_nodes":[],"categories_segments":[],"categories_sizes":[],"default_left":[0,0,0,0,0,0,0,0,0],"id":19,"left_children":[1,-1,3,5,-1,-1,7,-1,-1],"loss_changes":[5.173636E0,0E0,1.4091583E0,2.1875212E0,0E0,0E0,6.607509E-2,0E0,0E0],"parents":[2147483647,0,0,2,2,3,3,6,6],"right_children":[2,-1,4,6,-1,-1,8,-1,-1],"split_conditions":[3.52E0,1.6401133E-1,7.18E2,1.41E0,-1.4834823E-1,-1.2255732E-1,1.58E0,2.8231263E-2,1.4029405E-1],"split_indices":[1,0,3,2,0,0,2,0,0],"split_type":[0,0,0,0,0,0,0,0,0],"sum_hessian":[3.3532333E1,1.3140967E1,2.0391365E1,1.0880873E1,9.510492E0,5.2492933E0,5.6315794E0,1.1671698E0,4.4644094E0],"tree_param":{"num_deleted":"0","num_feature":"4","num_nodes":"9","size_leaf_vector":"1"}},{"base_weights":[-7.601526E-2,3.874778E-1,-1.5289903E-1,-1.06054135E-1,5.184465E-1,3.3469964E-2,1.6378662E-1],"categories":[],"categories_nodes":[],"categories_segments":[],"categories_sizes":[],"default_left":[0,0,0,0,0,0,0],"id":20,"left_children":[1,3,-1,-1,5,-1,-1],"loss_changes":[6.258634E0,1.6530042E0,0E0,0E0,8.7676525E-2,0E0,0E0],"parents":[2147483647,0,0,1,1,4,4],"right_children":[2,4,-1,-1,6,-1,-1],"split_conditions":[1.58E0,3.84E0,-1.5289903E-1,-1.06054135E-1,4.63E2,3.3469964E-2,1.6378662E-1],"split_indices":[2,1,0,0,3,0,0],"split_type":[0,0,0,0,0,0,0],"sum_hessian":[2.9156042E1,1.4144523E1,1.5011519E1,1.8692882E0,1.2275234E1,1.0975263E0,1.1177709E1],"tree_param":{"num_deleted":"0","num_feature":"4","num_nodes":"7","size_leaf_vector":"1"}},{"base_weights":[-1.4755306E-2,-4.161398E-1,3.8159963E-1,-1.4525434E-1,-1.2900032E-1,-8.650454E-2,4.6519962E-1,-1.0216339E-1,6.0009595E-2,-1.0386092E-2,1.543796E-1],"categories":[],"categories_nodes":[],"categories_segments":[],"categories_sizes":[],"default_left":[0,0,0,0,0,0,0,0,0,0,0],"id":21,"left_children":[1,3,5,-1,7,-1,9,-1,-1,-1,-1],"loss_changes":[4.3114643E0,2.0026565E-1,8.9893425E-1,0E0,3.4231254E-1,0E0,3.2701397E-1,0E0,0E0,0E0,0E0],"parents":[2147483647,0,0,1,1,2,2,4,4,6,6],"right_children":[2,4,6,-1,8,-1,10,-1,-1,-1,-1],"split_conditions":[7.6E2,6.8E2,2.17E0,-1.4525434E-1,2.55E0,-8.650454E-2,3.58E0,-1.0216339E-1,6.0009595E-2,-1.0386092E-2,1.543796E-1],"split_indices":[3,3,2,0,2,0,1,0,0,0,0],"split_type":[0,0,0,0,0,0,0,0,0,0,0],"sum_hessian":[2.5102499E1,1.2447316E1,1.2655183E1,9.508042E0,2.939273E0,1.1322762E0,1.1522907E1,1.7677485E0,1.1715245E0,1.0633271E0,1.0459579E1],"tree_param":{"num_deleted":"0","num_feature":"4","num_nodes":"11","size_leaf_vector":"1"}},{"base_weights":[7.592318E-2,1.558389E-1,-2.1656421E-1,4.81201E-2,-4.4632027E-1,-1.0951202E-1,4.2147994E-1,-3.6434133E-2,-1.4218712E-1,2.6966803E-2,1.4673838E-1],"categories":[],"categories_nodes":[],"categories_segments":[],"categories_sizes":[],"default_left":[0,0,0,0,0,0,0,0,0,0,0],"id":22,"left_children":[1,-1,3,5,7,-1,9,-1,-1,-1,-1],"loss_changes":[3.7882264E0,0E0,1.102732E0,1.567579E0,2.8770447E-2,0E0,7.4433506E-2,0E0,0E0,0E0,0E0],"parents":[2147483647,0,0,2,2,3,3,4,4,6,6],"right_children":[2,-1,4,6,8,-1,10,-1,-1,-1,-1],"split_conditions":[3.52E0,1.558389E-1,6.8E2,1.41E0,7.18E2,-1.0951202E-1,1.58E0,-3.6434133E-2,-1.4218712E-1,2.6966803E-2,1.4673838E-1],"split_indices":[1,0,3,2,3,0,2,0,0,0,0],"split_type":[0,0,0,0,0,0,0,0,0,0,0],"sum_hessian":[2.733373E1,1.055368E1,1.678005E1,8.164694E0,8.615356E0,3.8863456E0,4.278348E0,1.0983645E0,7.5169916E0,1.1195283E0,3.15882E0],"tree_param":{"num_deleted":"0","num_feature":"4","num_nodes":"11","size_leaf_vector":"1"}},{"base_weights":[-7.2259E-2,3.591844E-1,-1.47818E-1,-9.7616754E-2,4.8443478E-1,2.5029287E-2,1.5530303E-1],"categories":[],"categories_nodes":[],"categories_segments":[],"categories_sizes":[],"default_left":[0,0,0,0,0,0,0],"id":23,"left_children":[1,3,-1,-1,5,-1,-1],"loss_changes":[4.6106577E0,1.2415185E0,0E0,0E0,1.0461187E-1,0E0,0E0],"parents":[2147483647,0,0,1,1,4,4],"right_children":[2,4,-1,-1,6,-1,-1],"split_conditions":[1.58E0,3.84E0,-1.47818E-1,-9.7616754E-2,4.63E2,2.5029287E-2,1.5530303E-1],"split_indices":[2,1,0,0,3,0,0],"split_type":[0,0,0,0,0,0,0],"sum_hessian":[2.3440365E1,1.1641119E1,1.1799246E1,1.5533199E0,1.0087799E1,1.040911E0,9.046888E0],"tree_param":{"num_deleted":"0","num_feature":"4","num_nodes":"7","size_leaf_vector":"1"}},{"base_weights":[-1.7980043E-2,-4.212471E-1,3.2855585E-1,-1.3969405E-1,-3.922144E-2,-9.288234E-2,4.4228348E-1,1.1603867E-2,1.4739503E-1],"categories":[],"categories_nodes":[],"categories_segments":[],"categories_sizes":[],"default_left":[0,0,0,0,0,0,0,0,0],"id":24,"left_children":[1,3,5,-1,-1,-1,7,-1,-1],"loss_changes":[3.0967882E0,7.097268E-2,1.004046E0,0E0,0E0,0E0,1.8982315E-1,0E0,0E0],"parents":[2147483647,0,0,1,1,2,2,6,6],"right_children":[2,4,6,-1,-1,-1,8,-1,-1],"split_conditions":[7.35E2,6.8E2,2.17E0,-1.3969405E-1,-3.922144E-2,-9.288234E-2,3.6E0,1.1603867E-2,1.4739503E-1],"split_indices":[3,3,2,0,0,0,1,0,0],"split_type":[0,0,0,0,0,0,0,0,0],"sum_hessian":[2.0169653E1,9.222153E0,1.0947499E1,7.4766064E0,1.7455467E0,1.395352E0,9.552148E0,1.2285459E0,8.323602E0],"tree_param":{"num_deleted":"0","num_feature":"4","num_nodes":"9","size_leaf_vector":"1"}},{"base_weights":[7.3820956E-2,4.2015132E-1,-2.6256675E-1,1.4878872E-1,8.645003E-2,-3.6703974E-2,-1.3602014E-1,8.965176E-2,-4.508679E-2,-1.1897098E-1,3.4286097E-1,1.2347891E-1,2.5001796E-2],"categories":[],"categories_nodes":[],"categories_segments":[],"categories_sizes":[],"default_left":[0,0,0,0,0,0,0,0,0,0,0,0,0],"id":25,"left_children":[1,3,5,-1,7,9,-1,-1,-1,-1,11,-1,-1],"loss_changes":[2.8226922E0,2.5706077E-1,5.189427E-1,0E0,2.1616665E-1,1.0618951E0,0E0,0E0,0E0,0E0,3.4114897E-2,0E0,0E0],"parents":[2147483647,0,0,1,1,2,2,4,4,5,5,10,10],"right_children":[2,4,6,-1,8,10,-1,-1,-1,-1,12,-1,-1],"split_conditions":[3.95E0,3.52E0,6.8E2,1.4878872E-1,6.4E2,1.41E0,-1.3602014E-1,8.965176E-2,-4.508679E-2,-1.1897098E-1,5.4E0,1.2347891E-1,2.5001796E-2],"split_indices":[1,1,3,0,3,2,0,0,0,0,1,0,0],"split_type":[0,0,0,0,0,0,0,0,0,0,0,0,0],"sum_hessian":[2.2281929E1,1.0856023E1,1.1425906E1,8.450069E0,2.4059532E0,5.778753E0,5.6471534E0,1.1299303E0,1.2760229E0,2.9433541E0,2.8353987E0,1.7784009E0,1.0569978E0],"tree_param":{"num_deleted":"0","num_feature":"4","num_nodes":"13","size_leaf_vector":"1"}},{"base_weights":[-6.73493E-2,3.846782E-1,-4.3060234E-1,4.330095E-1,-6.917614E-5,3.2875778E-3,-1.430485E-1,2.1584416E-2,1.4266546E-1],"categories":[],"categories_nodes":[],"categories_segments":[],"categories_sizes":[],"default_left":[0,0,0,0,0,0,0,0,0],"id":26,"left_children":[1,3,5,7,-1,-1,-1,-1,-1],"loss_changes":[3.4278913E0,1.746018E-1,2.3969841E-1,9.380269E-2,0E0,0E0,0E0,0E0,0E0],"parents":[2147483647,0,0,1,1,2,2,3,3],"right_children":[2,4,6,8,-1,-1,-1,-1,-1],"split_conditions":[2.12E0,1.41E0,1.36E0,4.36E0,-6.917614E-5,3.2875778E-3,-1.430485E-1,2.1584416E-2,1.4266546E-1],"split_indices":[0,2,2,1,0,0,0,0,0],"split_type":[0,0,0,0,0,0,0,0,0],"sum_hessian":[1.8867483E1,8.380239E0,1.0487245E1,7.3343325E0,1.0459062E0,1.0661424E0,9.421102E0,1.0567484E0,6.277584E0],"tree_param":{"num_deleted":"0","num_feature":"4","num_nodes":"9","size_leaf_vector":"1"}},{"base_weights":[-2.2160903E-2,-3.7248227E-1,3.2962698E-1,-1.3358893E-1,-9.0893894E-2,-5.139247E-2,1.291074E-1,3.840804E-2,-8.278951E-2],"categories":[],"categories_nodes":[],"categories_segments":[],"categories_sizes":[],"default_left":[0,0,0,0,0,0,0,0,0],"id":27,"left_children":[1,3,5,-1,7,-1,-1,-1,-1],"loss_changes":[2.2674289E0,1.4792967E-1,5.386361E-1,0E0,1.6272806E-1,0E0,0E0,0E0,0E0],"parents":[2147483647,0,0,1,1,2,2,4,4],"right_children":[2,4,6,-1,8,-1,-1,-1,-1],"split_conditions":[7.6E2,2.61E0,2.29E0,-1.3358893E-1,2.74E0,-5.139247E-2,1.291074E-1,3.840804E-2,-8.278951E-2],"split_indices":[3,2,2,0,2,0,0,0,0],"split_type":[0,0,0,0,0,0,0,0,0],"sum_hessian":[1.640238E1,8.188846E0,8.213535E0,6.044472E0,2.1443737E0,1.2578076E0,6.9557276E0,1.1235524E0,1.0208211E0],"tree_param":{"num_deleted":"0","num_feature":"4","num_nodes":"9","size_leaf_vector":"1"}},{"base_weights":[7.152072E-2,1.4252855E-1,-1.8572737E-1,4.964177E-2,-4.00994E-1,-9.198414E-2,3.4120724E-1,-3.491282E-2,-1.2965797E-1,1.22532256E-1,1.9880015E-2],"categories":[],"categories_nodes":[],"categories_segments":[],"categories_sizes":[],"default_left":[0,0,0,0,0,0,0,0,0,0,0],"id":28,"left_children":[1,-1,3,5,7,-1,9,-1,-1,-1,-1],"loss_changes":[2.101486E0,0E0,6.563816E-1,8.203584E-1,8.9432E-3,0E0,5.1729918E-2,0E0,0E0,0E0,0E0],"parents":[2147483647,0,0,2,2,3,3,4,4,6,6],"right_children":[2,-1,4,6,8,-1,10,-1,-1,-1,-1],"split_conditions":[3.52E0,1.4252855E-1,6.8E2,1.41E0,7.25E2,-9.198414E-2,5.4E0,-3.491282E-2,-1.2965797E-1,1.22532256E-1,1.9880015E-2],"split_indices":[1,0,3,2,3,0,1,0,0,0,0],"split_type":[0,0,0,0,0,0,0,0,0,0,0],"sum_hessian":[1.8391947E1,6.8300433E0,1.1561904E1,5.890604E0,5.6713E0,2.6279612E0,3.2626429E0,1.0275416E0,4.6437583E0,2.2314153E0,1.0312277E0],"tree_param":{"num_deleted":"0","num_feature":"4","num_nodes":"11","size_leaf_vector":"1"}},{"base_weights":[-6.0986858E-2,3.09806E-1,-1.3788857E-1,-8.404375E-2,4.293891E-1,1.6812615E-2,1.4274152E-1],"categories":[],"categories_nodes":[],"categories_segments":[],"categories_sizes":[],"default_left":[0,0,0,0,0,0,0],"id":29,"left_children":[1,3,-1,-1,5,-1,-1],"loss_changes":[2.5691786E0,7.625212E-1,0E0,0E0,1.11344695E-1,0E0,0E0],"parents":[2147483647,0,0,1,1,4,4],"right_children":[2,4,-1,-1,6,-1,-1],"split_conditions":[1.58E0,3.84E0,-1.3788857E-1,-8.404375E-2,4.72E2,1.6812615E-2,1.4274152E-1],"split_indices":[2,1,0,0,3,0,0],"split_type":[0,0,0,0,0,0,0],"sum_hessian":[1.5417871E1,8.103408E0,7.314463E0,1.1394335E0,6.9639745E0,1.0141374E0,5.949837E0],"tree_param":{"num_deleted":"0","num_feature":"4","num_nodes":"7","size_leaf_vector":"1"}},{"base_weights":[-2.5303716E-2,-3.762122E-1,2.825054E-1,-1.290729E-1,-2.5498165E-2,-5.8114745E-2,4.0692252E-1,3.649295E-2,1.3128264E-1],"categories":[],"categories_nodes":[],"categories_segments":[],"categories_sizes":[],"default_left":[0,0,0,0,0,0,0,0,0],"id":30,"left_children":[1,3,5,-1,-1,-1,7,-1,-1],"loss_changes":[1.6631998E0,7.616246E-2,5.6762743E-1,0E0,0E0,0E0,6.8513155E-3,0E0,0E0],"parents":[2147483647,0,0,1,1,2,2,6,6],"right_children":[2,4,6,-1,-1,-1,8,-1,-1],"split_conditions":[7.35E2,6.8E2,2.29E0,-1.290729E-1,-2.5498165E-2,-5.8114745E-2,3.84E0,3.649295E-2,1.3128264E-1],"split_indices":[3,3,2,0,0,0,1,0,0],"split_type":[0,0,0,0,0,0,0,0,0],"sum_hessian":[1.3414193E1,6.164414E0,7.2497797E0,4.7970157E0,1.3673979E0,1.3863553E0,5.8634243E0,1.0515575E0,4.8118668E0],"tree_param":{"num_deleted":"0","num_feature":"4","num_nodes":"9","size_leaf_vector":"1"}},{"base_weights":[7.031765E-2,3.8201886E-1,-2.2898751E-1,1.3650231E-1,2.3719193E-2,-2.2298105E-2,-1.2421769E-1,-1.0398286E-1,2.7798942E-1,2.7788594E-2,9.867097E-2],"categories":[],"categories_nodes":[],"categories_segments":[],"categories_sizes":[],"default_left":[0,0,0,0,0,0,0,0,0,0,0],"id":31,"left_children":[1,3,5,-1,-1,7,-1,-1,9,-1,-1],"loss_changes":[1.6047195E0,1.4847136E-1,3.32044E-1,0E0,0E0,6.097398E-1,0E0,0E0,6.033182E-4,0E0,0E0],"parents":[2147483647,0,0,1,1,2,2,5,5,8,8],"right_children":[2,4,6,-1,-1,8,-1,-1,10,-1,-1],"split_conditions":[3.95E0,3.52E0,6.8E2,1.3650231E-1,2.3719193E-2,1.41E0,-1.2421769E-1,-1.0398286E-1,2.01E0,2.7788594E-2,9.867097E-2],"split_indices":[1,1,3,0,0,2,0,0,2,0,0],"split_type":[0,0,0,0,0,0,0,0,0,0,0],"sum_hessian":[1.5263056E1,7.341327E0,7.921729E0,5.5115657E0,1.8297617E0,4.271625E0,3.650104E0,1.9795002E0,2.2921245E0,1.1014439E0,1.1906807E0],"tree_param":{"num_deleted":"0","num_feature":"4","num_nodes":"11","size_leaf_vector":"1"}},{"base_weights":[-5.728951E-2,3.3373412E-1,-3.970394E-1,1.1624728E-1,5.977187E-3,-1.5214878E-2,-1.3236396E-1],"categories":[],"categories_nodes":[],"categories_segments":[],"categories_sizes":[],"default_left":[0,0,0,0,0,0,0],"id":32,"left_children":[1,3,5,-1,-1,-1,-1],"loss_changes":[1.9385868E0,1.0806835E-1,9.5896006E-2,0E0,0E0,0E0,0E0],"parents":[2147483647,0,0,1,1,2,2],"right_children":[2,4,6,-1,-1,-1,-1],"split_conditions":[2.12E0,1.39E0,1.58E0,1.1624728E-1,5.977187E-3,-1.5214878E-2,-1.3236396E-1],"split_indices":[0,2,2,0,0,0,0],"split_type":[0,0,0,0,0,0,0],"sum_hessian":[1.2594866E1,5.8638144E0,6.731052E0,4.8057737E0,1.0580406E0,1.0044278E0,5.726624E0],"tree_param":{"num_deleted":"0","num_feature":"4","num_nodes":"7","size_leaf_vector":"1"}},{"base_weights":[-2.654387E-2,-3.542669E-1,2.633857E-1,-1.233012E-1,-2.2079568E-2,-5.1729333E-2,1.1517899E-1],"categories":[],"categories_nodes":[],"categories_segments":[],"categories_sizes":[],"default_left":[0,0,0,0,0,0,0],"id":33,"left_children":[1,3,5,-1,-1,-1,-1],"loss_changes":[1.2499332E0,6.75329E-2,4.3565133E-1,0E0,0E0,0E0,0E0],"parents":[2147483647,0,0,1,1,2,2],"right_children":[2,4,6,-1,-1,-1,-1],"split_conditions":[7.35E2,6.8E2,2.29E0,-1.233012E-1,-2.2079568E-2,-5.1729333E-2,1.1517899E-1],"split_indices":[3,3,2,0,0,0,0],"split_type":[0,0,0,0,0,0,0],"sum_hessian":[1.1172866E1,5.140441E0,6.0324244E0,3.8897526E0,1.2506886E0,1.213757E0,4.8186674E0],"tree_param":{"num_deleted":"0","num_feature":"4","num_nodes":"7","size_leaf_vector":"1"}},{"base_weights":[6.705254E-2,1.3086958E-1,-1.5715851E-1,6.8172656E-2,-2.6899198E-1,-7.0429E-2,-1.1750743E-1,6.3839495E-2,-7.814801E-2],"categories":[],"categories_nodes":[],"categories_segments":[],"categories_sizes":[],"default_left":[0,0,0,0,0,0,0,0,0],"id":34,"left_children":[1,-1,3,-1,5,7,-1,-1,-1],"loss_changes":[1.2232544E0,0E0,4.6583065E-1,0E0,1.6124296E-1,2.8041342E-1,0E0,0E0,0E0],"parents":[2147483647,0,0,2,2,4,4,5,5],"right_children":[2,-1,4,-1,6,8,-1,-1,-1],"split_conditions":[3.52E0,1.3086958E-1,4.8E2,6.8172656E-2,4.9E0,6.8E2,-1.1750743E-1,6.3839495E-2,-7.814801E-2],"split_indices":[1,0,3,0,1,3,0,0,0],"split_type":[0,0,0,0,0,0,0,0,0],"sum_hessian":[1.294998E1,4.5358124E0,8.414167E0,1.6636839E0,6.7504835E0,3.1793604E0,3.5711231E0,1.2287331E0,1.9506273E0],"tree_param":{"num_deleted":"0","num_feature":"4","num_nodes":"9","size_leaf_vector":"1"}},{"base_weights":[-5.2877925E-2,2.6183522E-1,-1.2747028E-1,-5.83789E-2,3.7564287E-1,1.4664817E-2,1.3052143E-1],"categories":[],"categories_nodes":[],"categories_segments":[],"categories_sizes":[],"default_left":[0,0,0,0,0,0,0],"id":35,"left_children":[1,3,-1,-1,5,-1,-1],"loss_changes":[1.4669158E0,4.310707E-1,0E0,0E0,9.247291E-2,0E0,0E0],"parents":[2147483647,0,0,1,1,4,4],"right_children":[2,4,-1,-1,6,-1,-1],"split_conditions":[1.58E0,3.9E0,-1.2747028E-1,-5.83789E-2,4.88E2,1.4664817E-2,1.3052143E-1],"split_indices":[2,1,0,0,3,0,0],"split_type":[0,0,0,0,0,0,0],"sum_hessian":[1.0578885E1,5.891311E0,4.687574E0,1.0341058E0,4.8572054E0,1.0279121E0,3.829293E0],"tree_param":{"num_deleted":"0","num_feature":"4","num_nodes":"7","size_leaf_vector":"1"}},{"base_weights":[-2.9724613E-2,-3.3175144E-1,2.4224344E-1,-1.1723598E-1,-1.9700555E-2,-4.4717126E-2,1.0658056E-1],"categories":[],"categories_nodes":[],"categories_segments":[],"categories_sizes":[],"default_left":[0,0,0,0,0,0,0],"id":36,"left_children":[1,3,5,-1,-1,-1,-1],"loss_changes":[9.325155E-1,5.8179975E-2,3.1993854E-1,0E0,0E0,0E0,0E0],"parents":[2147483647,0,0,1,1,2,2],"right_children":[2,4,6,-1,-1,-1,-1],"split_conditions":[7.35E2,6.8E2,2.29E0,-1.1723598E-1,-1.9700555E-2,-4.4717126E-2,1.0658056E-1],"split_indices":[3,3,2,0,0,0,0],"split_type":[0,0,0,0,0,0,0],"sum_hessian":[9.374164E0,4.337477E0,5.036687E0,3.166311E0,1.1711661E0,1.0573328E0,3.9793541E0],"tree_param":{"num_deleted":"0","num_feature":"4","num_nodes":"7","size_leaf_vector":"1"}},{"base_weights":[6.527704E-2,3.432331E-1,-2.0041335E-1,1.2499386E-1,1.9543495E-2,4.1253556E-2,-2.8290826E-1,-1.9068098E-2,-1.1008171E-1],"categories":[],"categories_nodes":[],"categories_segments":[],"categories_sizes":[],"default_left":[0,0,0,0,0,0,0,0,0],"id":37,"left_children":[1,3,5,-1,-1,-1,7,-1,-1],"loss_changes":[9.5796597E-1,1.0051364E-1,2.2811398E-1,0E0,0E0,0E0,8.326182E-2,0E0,0E0],"parents":[2147483647,0,0,1,1,2,2,6,6],"right_children":[2,4,6,-1,-1,-1,8,-1,-1],"split_conditions":[3.95E0,7.2E2,4.66E2,1.2499386E-1,1.9543495E-2,4.1253556E-2,4.9E0,-1.9068098E-2,-1.1008171E-1],"split_indices":[1,3,3,0,0,0,1,0,0],"split_type":[0,0,0,0,0,0,0,0,0],"sum_hessian":[1.1040277E1,5.252959E0,5.7873173E0,3.7616584E0,1.4913006E0,1.0047265E0,4.782591E0,1.811188E0,2.971403E0],"tree_param":{"num_deleted":"0","num_feature":"4","num_nodes":"9","size_leaf_vector":"1"}},{"base_weights":[-4.8279647E-2,2.8531826E-1,-3.6230862E-1,1.8664958E-2,1.1711033E-1,-3.0511968E-2,-1.19899176E-1],"categories":[],"categories_nodes":[],"categories_segments":[],"categories_sizes":[],"default_left":[0,0,0,0,0,0,0],"id":38,"left_children":[1,3,5,-1,-1,-1,-1],"loss_changes":[1.1396569E0,1.0123992E-1,1.3244033E-2,0E0,0E0,0E0,0E0],"parents":[2147483647,0,0,1,1,2,2],"right_children":[2,4,6,-1,-1,-1,-1],"split_conditions":[2.12E0,5.85E0,1.76E0,1.8664958E-2,1.1711033E-1,-3.0511968E-2,-1.19899176E-1],"split_indices":[0,1,2,0,0,0,0],"split_type":[0,0,0,0,0,0,0],"sum_hessian":[8.892035E0,4.356007E0,4.5360274E0,1.9041904E0,2.4518168E0,1.0354047E0,3.5006227E0],"tree_param":{"num_deleted":"0","num_feature":"4","num_nodes":"7","size_leaf_vector":"1"}},{"base_weights":[-3.2449584E-2,-1.1259527E-1,1.7869723E-1,-4.1732937E-2,3.12677E-1,1.2975001E-2,1.1353267E-1],"categories":[],"categories_nodes":[],"categories_segments":[],"categories_sizes":[],"default_left":[0,0,0,0,0,0,0],"id":39,"left_children":[1,-1,3,-1,5,-1,-1],"loss_changes":[7.26364E-1,0E0,3.123233E-1,0E0,6.778142E-2,0E0,0E0],"parents":[2147483647,0,0,2,2,4,4],"right_children":[2,-1,4,-1,6,-1,-1],"split_conditions":[2.19E0,-1.1259527E-1,7.18E2,-4.1732937E-2,3.85E0,1.2975001E-2,1.1353267E-1],"split_indices":[2,0,3,0,1,0,0],"split_type":[0,0,0,0,0,0,0],"sum_hessian":[8.106866E0,2.79337E0,5.313496E0,1.5643908E0,3.7491055E0,1.060812E0,2.6882935E0],"tree_param":{"num_deleted":"0","num_feature":"4","num_nodes":"7","size_leaf_vector":"1"}},{"base_weights":[6.324906E-2,1.2111818E-1,-1.3609359E-1,6.1078545E-2,-9.855148E-2,-6.9155924E-2,8.156347E-2],"categories":[],"categories_nodes":[],"categories_segments":[],"categories_sizes":[],"default_left":[0,0,0,0,0,0,0],"id":40,"left_children":[1,-1,3,5,-1,-1,-1],"loss_changes":[7.8254753E-1,0E0,3.0495787E-1,3.4248212E-1,0E0,0E0,0E0],"parents":[2147483647,0,0,2,2,3,3],"right_children":[2,-1,4,6,-1,-1,-1],"split_conditions":[3.52E0,1.2111818E-1,6.8E2,1.41E0,-9.855148E-2,-6.9155924E-2,8.156347E-2],"split_indices":[1,0,3,2,0,0,0],"split_type":[0,0,0,0,0,0,0],"sum_hessian":[9.720248E0,3.2108345E0,6.5094137E0,3.5520442E0,2.9573693E0,1.45114E0,2.1009042E0],"tree_param":{"num_deleted":"0","num_feature":"4","num_nodes":"7","size_leaf_vector":"1"}},{"base_weights":[-4.3999076E-2,2.8578776E-1,-3.3947507E-1,-1.3255965E-3,1.1267752E-1,-2.4404077E-2,-1.1540782E-1],"categories":[],"categories_nodes":[],"categories_segments":[],"categories_sizes":[],"default_left":[0,0,0,0,0,0,0],"id":41,"left_children":[1,3,5,-1,-1,-1,-1],"loss_changes":[9.442074E-1,1.22884154E-1,2.7564108E-2,0E0,0E0,0E0,0E0],"parents":[2147483647,0,0,1,1,2,2],"right_children":[2,4,6,-1,-1,-1,-1],"split_conditions":[1.41E0,4.68E0,1.64E0,-1.3255965E-3,1.1267752E-1,-2.4404077E-2,-1.1540782E-1],"split_indices":[2,1,2,0,0,0,0],"split_type":[0,0,0,0,0,0,0],"sum_hessian":[7.6941094E0,3.6514452E0,4.0426645E0,1.0876007E0,2.5638442E0,1.0198404E0,3.022824E0],"tree_param":{"num_deleted":"0","num_feature":"4","num_nodes":"7","size_leaf_vector":"1"}},{"base_weights":[-3.3795215E-2,-2.0180981E-1,1.0039679E-1,-1.0977886E-1,5.4354366E-2,6.0530055E-2,-3.693987E-2],"categories":[],"categories_nodes":[],"categories_segments":[],"categories_sizes":[],"default_left":[0,0,0,0,0,0,0],"id":42,"left_children":[1,3,-1,-1,5,-1,-1],"loss_changes":[5.563448E-1,2.7411273E-1,0E0,0E0,1.0940525E-1,0E0,0E0],"parents":[2147483647,0,0,1,1,4,4],"right_children":[2,4,-1,-1,6,-1,-1],"split_conditions":[9.9E2,2.61E0,1.0039679E-1,-1.0977886E-1,2.74E0,6.0530055E-2,-3.693987E-2],"split_indices":[3,2,0,0,2,0,0],"split_type":[0,0,0,0,0,0,0],"sum_hessian":[6.8960767E0,5.046937E0,1.8491399E0,2.8149521E0,2.2319846E0,1.1445662E0,1.0874184E0],"tree_param":{"num_deleted":"0","num_feature":"4","num_nodes":"7","size_leaf_vector":"1"}},{"base_weights":[5.9982564E-2,1.1537152E-1,-1.2659721E-1,5.4476794E-2,-2.309755E-1,-7.825084E-2,-1.0160554E-1,-9.001902E-2,4.970856E-2],"categories":[],"categories_nodes":[],"categories_segments":[],"categories_sizes":[],"default_left":[0,0,0,0,0,0,0,0,0],"id":43,"left_children":[1,-1,3,-1,5,7,-1,-1,-1],"loss_changes":[6.2300265E-1,0E0,2.598514E-1,0E0,6.39787E-2,2.4317968E-1,0E0,0E0,0E0],"parents":[2147483647,0,0,2,2,4,4,5,5],"right_children":[2,-1,4,-1,6,8,-1,-1,-1],"split_conditions":[3.52E0,1.1537152E-1,4.8E2,5.4476794E-2,7.18E2,1.58E0,-1.0160554E-1,-9.001902E-2,4.970856E-2],"split_indices":[1,0,3,0,3,2,0,0,0],"split_type":[0,0,0,0,0,0,0,0,0],"sum_hessian":[8.48316E0,2.7090735E0,5.7740865E0,1.2736865E0,4.5004E0,2.575302E0,1.9250982E0,1.228356E0,1.3469459E0],"tree_param":{"num_deleted":"0","num_feature":"4","num_nodes":"9","size_leaf_vector":"1"}},{"base_weights":[-3.9708424E-2,2.0982978E-1,-1.110206E-1,1.01497225E-1,-2.2464925E-3],"categories":[],"categories_nodes":[],"categories_segments":[],"categories_sizes":[],"default_left":[0,0,0,0,0],"id":44,"left_children":[1,3,-1,-1,-1],"loss_changes":[7.045664E-1,1.413296E-1,0E0,0E0,0E0],"parents":[2147483647,0,0,1,1],"right_children":[2,4,-1,-1,-1],"split_conditions":[1.58E0,9.9E-1,-1.110206E-1,1.01497225E-1,-2.2464925E-3],"split_indices":[2,2,0,0,0],"split_type":[0,0,0,0,0],"sum_hessian":[6.6047306E0,3.9704726E0,2.634258E0,2.1452372E0,1.8252354E0],"tree_param":{"num_deleted":"0","num_feature":"4","num_nodes":"5","size_leaf_vector":"1"}},{"base_weights":[-3.0345429E-2,-1.00893915E-1,1.5406181E-1,-3.2288767E-2,2.781894E-1,1.8121948E-2,1.0158702E-1],"categories":[],"categories_nodes":[],"categories_segments":[],"categories_sizes":[],"default_left":[0,0,0,0,0,0,0],"id":45,"left_children":[1,-1,3,-1,5,-1,-1],"loss_changes":[4.424953E-1,0E0,1.9255692E-1,0E0,2.7907073E-2,0E0,0E0],"parents":[2147483647,0,0,2,2,4,4],"right_children":[2,-1,4,-1,6,-1,-1],"split_conditions":[6.8E2,-1.00893915E-1,2.55E0,-3.2288767E-2,4.35E0,1.8121948E-2,1.0158702E-1],"split_indices":[3,0,2,0,1,0,0],"split_type":[0,0,0,0,0,0,0],"sum_hessian":[5.92421E0,1.9180459E0,4.0061646E0,1.331646E0,2.6745183E0,1.0152954E0,1.659223E0],"tree_param":{"num_deleted":"0","num_feature":"4","num_nodes":"7","size_leaf_vector":"1"}},{"base_weights":[5.5119228E-2,2.9877242E-1,-1.6607064E-1,1.0908275E-1,1.6436953E-2,-3.2654477E-3,-9.696501E-2,-4.2883534E-2,5.1416524E-2],"categories":[],"categories_nodes":[],"categories_segments":[],"categories_sizes":[],"default_left":[0,0,0,0,0,0,0,0,0],"id":46,"left_children":[1,3,5,-1,-1,7,-1,-1,-1],"loss_changes":[5.046393E-1,4.9282134E-2,1.2861094E-1,0E0,0E0,1.098714E-1,0E0,0E0,0E0],"parents":[2147483647,0,0,1,1,2,2,5,5],"right_children":[2,4,6,-1,-1,8,-1,-1,-1],"split_conditions":[3.95E0,3.52E0,6.8E2,1.0908275E-1,1.6436953E-2,1.93E0,-9.696501E-2,-4.2883534E-2,5.1416524E-2],"split_indices":[1,1,3,0,0,0,0,0,0],"split_type":[0,0,0,0,0,0,0,0,0],"sum_hessian":[7.442967E0,3.374744E0,4.068223E0,2.2788475E0,1.0958966E0,2.4994953E0,1.5687275E0,1.4896764E0,1.0098189E0],"tree_param":{"num_deleted":"0","num_feature":"4","num_nodes":"9","size_leaf_vector":"1"}},{"base_weights":[-3.7952803E-2,2.2744803E-1,-9.399397E-2,7.130546E-3,9.979341E-2],"categories":[],"categories_nodes":[],"categories_segments":[],"categories_sizes":[],"default_left":[0,0,0,0,0],"id":47,"left_children":[1,3,-1,-1,-1],"loss_changes":[5.627723E-1,7.788719E-2,0E0,0E0,0E0],"parents":[2147483647,0,0,1,1],"right_children":[2,4,-1,-1,-1],"split_conditions":[2.12E0,5.85E0,-9.399397E-2,7.130546E-3,9.979341E-2],"split_indices":[0,1,0,0,0],"split_type":[0,0,0,0,0],"sum_hessian":[5.7255597E0,3.0041072E0,2.7214525E0,1.4406651E0,1.5634422E0],"tree_param":{"num_deleted":"0","num_feature":"4","num_nodes":"5","size_leaf_vector":"1"}},{"base_weights":[-2.9894838E-2,-9.523722E-2,1.4244348E-1,-2.9508157E-2,2.5977075E-1,9.147709E-2,2.568377E-2],"categories":[],"categories_nodes":[],"categories_segments":[],"categories_sizes":[],"default_left":[0,0,0,0,0,0,0],"id":48,"left_children":[1,-1,3,-1,5,-1,-1],"loss_changes":[3.5415325E-1,0E0,1.5517733E-1,0E0,3.1392276E-4,0E0,0E0],"parents":[2147483647,0,0,2,2,4,4],"right_children":[2,-1,4,-1,6,-1,-1],"split_conditions":[6.8E2,-9.523722E-2,2.55E0,-2.9508157E-2,3.26E0,9.147709E-2,2.568377E-2],"split_indices":[3,0,2,0,0,0,0],"split_type":[0,0,0,0,0,0,0],"sum_hessian":[5.233772E0,1.6457033E0,3.5880685E0,1.2284465E0,2.359622E0,1.2775555E0,1.0820665E0],"tree_param":{"num_deleted":"0","num_feature":"4","num_nodes":"7","size_leaf_vector":"1"}},{"base_weights":[4.96696E-2,1.0342403E-1,-1.108578E-1,5.0420415E-2,-2.1572952E-1,-7.7255145E-2,-9.139058E-2,-8.120459E-2,4.267309E-2],"categories":[],"categories_nodes":[],"categories_segments":[],"categories_sizes":[],"default_left":[0,0,0,0,0,0,0,0,0],"id":49,"left_children":[1,-1,3,-1,5,7,-1,-1,-1],"loss_changes":[4.020804E-1,0E0,2.0391944E-1,0E0,3.313954E-2,1.7180592E-1,0E0,0E0,0E0],"parents":[2147483647,0,0,2,2,4,4,5,5],"right_children":[2,-1,4,-1,6,8,-1,-1,-1],"split_conditions":[3.52E0,1.0342403E-1,4.8E2,5.0420415E-2,7.18E2,1.58E0,-9.139058E-2,-8.120459E-2,4.267309E-2],"split_indices":[1,0,3,0,3,2,0,0,0],"split_type":[0,0,0,0,0,0,0,0,0],"sum_hessian":[6.681616E0,1.9498556E0,4.73176E0,1.128281E0,3.6034791E0,2.1397247E0,1.4637544E0,1.0134603E0,1.1262645E0],"tree_param":{"num_deleted":"0","num_feature":"4","num_nodes":"9","size_leaf_vector":"1"}},{"base_weights":[-3.179937E-2,2.4270383E-1,-8.472512E-2,1.6184192E-2,9.040466E-2],"categories":[],"categories_nodes":[],"categories_segments":[],"categories_sizes":[],"default_left":[0,0,0,0,0],"id":50,"left_children":[1,3,-1,-1,-1],"loss_changes":[4.9080977E-1,2.2123873E-2,0E0,0E0,0E0],"parents":[2147483647,0,0,1,1],"right_children":[2,4,-1,-1,-1],"split_conditions":[1.41E0,5E0,-8.472512E-2,1.6184192E-2,9.040466E-2],"split_indices":[2,1,0,0,0],"split_type":[0,0,0,0,0],"sum_hessian":[5.138002E0,2.4672186E0,2.6707833E0,1.0399388E0,1.4272798E0],"tree_param":{"num_deleted":"0","num_feature":"4","num_nodes":"5","size_leaf_vector":"1"}},{"base_weights":[-2.6842484E-2,-8.9628674E-2,1.3793351E-1,-2.8093051E-2,7.399935E-2],"categories":[],"categories_nodes":[],"categories_segments":[],"categories_sizes":[],"default_left":[0,0,0,0,0],"id":51,"left_children":[1,-1,3,-1,-1],"loss_changes":[2.940357E-1,0E0,1.2879547E-1,0E0,0E0],"parents":[2147483647,0,0,2,2],"right_children":[2,-1,4,-1,-1],"split_conditions":[2.19E0,-8.9628674E-2,7.18E2,-2.8093051E-2,7.399935E-2],"split_indices":[2,0,3,0,0],"split_type":[0,0,0,0,0],"sum_hessian":[4.6427097E0,1.4449897E0,3.1977203E0,1.066031E0,2.1316893E0],"tree_param":{"num_deleted":"0","num_feature":"4","num_nodes":"5","size_leaf_vector":"1"}},{"base_weights":[4.2378776E-2,2.6534534E-1,-1.540715E-1,9.661803E-2,1.827401E-2,-1.1446962E-2,-8.623452E-2,-2.7674312E-2,2.4152886E-2],"categories":[],"categories_nodes":[],"categories_segments":[],"categories_sizes":[],"default_left":[0,0,0,0,0,0,0,0,0],"id":52,"left_children":[1,3,5,-1,-1,7,-1,-1,-1],"loss_changes":[3.4722728E-1,2.2622705E-2,7.9471774E-2,0E0,0E0,3.0786712E-2,0E0,0E0,0E0],"parents":[2147483647,0,0,1,1,2,2,5,5],"right_children":[2,4,6,-1,-1,8,-1,-1,-1],"split_conditions":[3.95E0,3.4E0,6.8E2,9.661803E-2,1.827401E-2,1.64E0,-8.623452E-2,-2.7674312E-2,2.4152886E-2],"split_indices":[1,1,3,0,0,0,0,0,0],"split_type":[0,0,0,0,0,0,0,0,0],"sum_hessian":[5.9938874E0,2.6432076E0,3.3506796E0,1.6187375E0,1.0244701E0,2.1439278E0,1.206752E0,1.139501E0,1.0044267E0],"tree_param":{"num_deleted":"0","num_feature":"4","num_nodes":"9","size_leaf_vector":"1"}},{"base_weights":[-2.5889449E-2,2.292805E-1,-7.8038014E-2,1.9867662E-2,8.29235E-2],"categories":[],"categories_nodes":[],"categories_segments":[],"categories_sizes":[],"default_left":[0,0,0,0,0],"id":53,"left_children":[1,3,-1,-1,-1],"loss_changes":[3.9423397E-1,6.369218E-3,0E0,0E0,0E0],"parents":[2147483647,0,0,1,1],"right_children":[2,4,-1,-1,-1],"split_conditions":[1.41E0,5.04E0,-7.8038014E-2,1.9867662E-2,8.29235E-2],"split_indices":[2,1,0,0,0],"split_type":[0,0,0,0,0],"sum_hessian":[4.597963E0,2.2107787E0,2.3871841E0,1.0350505E0,1.1757281E0],"tree_param":{"num_deleted":"0","num_feature":"4","num_nodes":"5","size_leaf_vector":"1"}},{"base_weights":[-2.8784586E-2,-8.52616E-2,1.269876E-1,-2.464476E-2,7.165688E-2],"categories":[],"categories_nodes":[],"categories_segments":[],"categories_sizes":[],"default_left":[0,0,0,0,0],"id":54,"left_children":[1,-1,3,-1,-1],"loss_changes":[2.4139178E-1,0E0,1.10780954E-1,0E0,0E0],"parents":[2147483647,0,0,2,2],"right_children":[2,-1,4,-1,-1],"split_conditions":[6.8E2,-8.52616E-2,3.93E0,-2.464476E-2,7.165688E-2],"split_indices":[3,0,1,0,0],"split_type":[0,0,0,0,0],"sum_hessian":[4.1599493E0,1.2635705E0,2.8963788E0,1.1019545E0,1.7944242E0],"tree_param":{"num_deleted":"0","num_feature":"4","num_nodes":"5","size_leaf_vector":"1"}},{"base_weights":[3.841371E-2,7.578409E-2,-1.4854412E-1,-1.7501371E-2,-8.119183E-2,-2.4591517E-2,1.7152565E-2],"categories":[],"categories_nodes":[],"categories_segments":[],"categories_sizes":[],"default_left":[0,0,0,0,0,0,0],"id":55,"left_children":[1,-1,3,5,-1,-1,-1],"loss_changes":[2.9894885E-1,0E0,6.1108492E-2,1.9390497E-2,0E0,0E0,0E0],"parents":[2147483647,0,0,2,2,3,3],"right_children":[2,-1,4,6,-1,-1,-1],"split_conditions":[3.95E0,7.578409E-2,6.8E2,1.6E0,-8.119183E-2,-2.4591517E-2,1.7152565E-2],"split_indices":[1,0,3,0,0,0,0],"split_type":[0,0,0,0,0,0,0],"sum_hessian":[5.528051E0,2.4126585E0,3.1153924E0,2.0541024E0,1.06129E0,1.0499564E0,1.004146E0],"tree_param":{"num_deleted":"0","num_feature":"4","num_nodes":"7","size_leaf_vector":"1"}},{"base_weights":[-1.9698031E-2,8.349147E-2,-1.9533515E-1,2.4248395E-2,-9.640335E-2],"categories":[],"categories_nodes":[],"categories_segments":[],"categories_sizes":[],"default_left":[0,0,0,0,0],"id":56,"left_children":[1,-1,3,-1,-1],"loss_changes":[3.260248E-1,0E0,1.6006158E-1,0E0,0E0],"parents":[2147483647,0,0,2,2],"right_children":[2,-1,4,-1,-1],"split_conditions":[9.9E-1,8.349147E-2,1.8E0,2.4248395E-2,-9.640335E-2],"split_indices":[2,0,0,0,0],"split_type":[0,0,0,0,0],"sum_hessian":[4.1902976E0,1.3370999E0,2.8531978E0,1.0063118E0,1.8468859E0],"tree_param":{"num_deleted":"0","num_feature":"4","num_nodes":"5","size_leaf_vector":"1"}},{"base_weights":[-2.7901238E-2,-8.028159E-2,1.2008182E-1,-1.6305136E-2,6.3016884E-2],"categories":[],"categories_nodes":[],"categories_segments":[],"categories_sizes":[],"default_left":[0,0,0,0,0],"id":57,"left_children":[1,-1,3,-1,-1],"loss_changes":[2.0121376E-1,0E0,6.8503246E-2,0E0,0E0],"parents":[2147483647,0,0,2,2],"right_children":[2,-1,4,-1,-1],"split_conditions":[2.19E0,-8.028159E-2,3.93E0,-1.6305136E-2,6.3016884E-2],"split_indices":[2,0,1,0,0],"split_type":[0,0,0,0,0],"sum_hessian":[3.766536E0,1.1291614E0,2.6373749E0,1.0321991E0,1.6051756E0],"tree_param":{"num_deleted":"0","num_feature":"4","num_nodes":"5","size_leaf_vector":"1"}},{"base_weights":[3.049691E-2,8.8897325E-2,-1.0690162E-1,3.1516623E-2,-7.296878E-2,-3.2642674E-2,5.128741E-2],"categories":[],"categories_nodes":[],"categories_segments":[],"categories_sizes":[],"default_left":[0,0,0,0,0,0,0],"id":58,"left_children":[1,-1,3,5,-1,-1,-1],"loss_changes":[2.5333226E-1,0E0,9.702912E-2,8.190376E-2,0E0,0E0,0E0],"parents":[2147483647,0,0,2,2,3,3],"right_children":[2,-1,4,6,-1,-1,-1],"split_conditions":[3.52E0,8.8897325E-2,6.8E2,1.93E0,-7.296878E-2,-3.2642674E-2,5.128741E-2],"split_indices":[1,0,3,0,0,0,0],"split_type":[0,0,0,0,0,0,0],"sum_hessian":[5.06869E0,1.3330109E0,3.735679E0,2.23511E0,1.5005689E0,1.2235162E0,1.0115937E0],"tree_param":{"num_deleted":"0","num_feature":"4","num_nodes":"7","size_leaf_vector":"1"}},{"base_weights":[-1.0815482E-2,6.469797E-2,-6.755287E-2],"categories":[],"categories_nodes":[],"categories_segments":[],"categories_sizes":[],"default_left":[0,0,0],"id":59,"left_children":[1,-1,-1],"loss_changes":[2.82353E-1,0E0,0E0],"parents":[2147483647,0,0],"right_children":[2,-1,-1],"split_conditions":[1.41E0,6.469797E-2,-6.755287E-2],"split_indices":[2,0,0],"split_type":[0,0,0],"sum_hessian":[3.8157341E0,1.8524898E0,1.9632442E0],"tree_param":{"num_deleted":"0","num_feature":"4","num_nodes":"3","size_leaf_vector":"1"}},{"base_weights":[-3.0426873E-2,-7.6939695E-2,1.12511404E-1,-1.4196622E-2,6.042292E-2],"categories":[],"categories_nodes":[],"categories_segments":[],"categories_sizes":[],"default_left":[0,0,0,0,0],"id":60,"left_children":[1,-1,3,-1,-1],"loss_changes":[1.7156693E-1,0E0,5.785527E-2,0E0,0E0],"parents":[2147483647,0,0,2,2],"right_children":[2,-1,4,-1,-1],"split_conditions":[6.8E2,-7.6939695E-2,3.94E0,-1.4196622E-2,6.042292E-2],"split_indices":[3,0,1,0,0],"split_type":[0,0,0,0,0],"sum_hessian":[3.4170048E0,1.0160346E0,2.4009702E0,1.025275E0,1.3756952E0],"tree_param":{"num_deleted":"0","num_feature":"4","num_nodes":"5","size_leaf_vector":"1"}},{"base_weights":[3.1436827E-2,8.446893E-2,-9.728329E-2,2.9708311E-2,-6.7280635E-2,-2.9345818E-2,4.5307815E-2],"categories":[],"categories_nodes":[],"categories_segments":[],"categories_sizes":[],"default_left":[0,0,0,0,0,0,0],"id":61,"left_children":[1,-1,3,5,-1,-1,-1],"loss_changes":[2.1109144E-1,0E0,7.93953E-2,6.332393E-2,0E0,0E0,0E0],"parents":[2147483647,0,0,2,2,3,3],"right_children":[2,-1,4,6,-1,-1,-1],"split_conditions":[3.52E0,8.446893E-2,6.8E2,1.83E0,-6.7280635E-2,-2.9345818E-2,4.5307815E-2],"split_indices":[1,0,3,0,0,0,0],"split_type":[0,0,0,0,0,0,0],"sum_hessian":[4.705629E0,1.1953819E0,3.5102472E0,2.1380968E0,1.3721503E0,1.1367997E0,1.0012971E0],"tree_param":{"num_deleted":"0","num_feature":"4","num_nodes":"7","size_leaf_vector":"1"}},{"base_weights":[-9.963072E-3,7.570439E-2,-1.7001894E-1,1.5856145E-2,-8.7474346E-2],"categories":[],"categories_nodes":[],"categories_segments":[],"categories_sizes":[],"default_left":[0,0,0,0,0],"id":62,"left_children":[1,-1,3,-1,-1],"loss_changes":[2.3241515E-1,0E0,1.0754838E-1,0E0,0E0],"parents":[2147483647,0,0,2,2],"right_children":[2,-1,4,-1,-1],"split_conditions":[9.9E-1,7.570439E-2,2E0,1.5856145E-2,-8.7474346E-2],"split_indices":[2,0,0,0,0],"split_type":[0,0,0,0,0],"sum_hessian":[3.5138466E0,1.11306E0,2.4007866E0,1.0467966E0,1.3539901E0],"tree_param":{"num_deleted":"0","num_feature":"4","num_nodes":"5","size_leaf_vector":"1"}},{"base_weights":[-3.3326745E-2,-5.866813E-2,4.34165E-2],"categories":[],"categories_nodes":[],"categories_segments":[],"categories_sizes":[],"default_left":[0,0,0],"id":63,"left_children":[1,-1,-1],"loss_changes":[1.4691706E-1,0E0,0E0],"parents":[2147483647,0,0],"right_children":[2,-1,-1],"split_conditions":[7.6E2,-5.866813E-2,4.34165E-2],"split_indices":[3,0,0],"split_type":[0,0,0],"sum_hessian":[3.1064003E0,1.5739224E0,1.532478E0],"tree_param":{"num_deleted":"0","num_feature":"4","num_nodes":"3","size_leaf_vector":"1"}},{"base_weights":[2.9649118E-2,7.959284E-2,-9.078601E-2,2.6511116E-2,-6.202987E-2,-1.9687116E-2,3.1712078E-2],"categories":[],"categories_nodes":[],"categories_segments":[],"categories_sizes":[],"default_left":[0,0,0,0,0,0,0],"id":64,"left_children":[1,-1,3,5,-1,-1,-1],"loss_changes":[1.7545114E-1,0E0,6.3632324E-2,2.8911099E-2,0E0,0E0,0E0],"parents":[2147483647,0,0,2,2,3,3],"right_children":[2,-1,4,6,-1,-1,-1],"split_conditions":[3.52E0,7.959284E-2,6.8E2,1.64E0,-6.202987E-2,-1.9687116E-2,3.1712078E-2],"split_indices":[1,0,3,0,0,0,0],"split_type":[0,0,0,0,0,0,0],"sum_hessian":[4.333166E0,1.0586797E0,3.2744863E0,2.0115314E0,1.2629548E0,1.0090253E0,1.002506E0],"tree_param":{"num_deleted":"0","num_feature":"4","num_nodes":"7","size_leaf_vector":"1"}},{"base_weights":[-5.0163385E-3,5.879964E-2,-5.8907624E-2],"categories":[],"categories_nodes":[],"categories_segments":[],"categories_sizes":[],"default_left":[0,0,0],"id":65,"left_children":[1,-1,-1],"loss_changes":[2.0157197E-1,0E0,0E0],"parents":[2147483647,0,0],"right_children":[2,-1,-1],"split_conditions":[1.41E0,5.879964E-2,-5.8907624E-2],"split_indices":[2,0,0],"split_type":[0,0,0],"sum_hessian":[3.240103E0,1.568245E0,1.671858E0],"tree_param":{"num_deleted":"0","num_feature":"4","num_nodes":"3","size_leaf_vector":"1"}},{"base_weights":[-3.3143852E-2,-5.6362543E-2,3.733341E-2],"categories":[],"categories_nodes":[],"categories_segments":[],"categories_sizes":[],"default_left":[0,0,0],"id":66,"left_children":[1,-1,-1],"loss_changes":[1.1786101E-1,0E0,0E0],"parents":[2147483647,0,0],"right_children":[2,-1,-1],"split_conditions":[7.35E2,-5.6362543E-2,3.733341E-2],"split_indices":[3,0,0],"split_type":[0,0,0],"sum_hessian":[2.87473E0,1.3535419E0,1.5211884E0],"tree_param":{"num_deleted":"0","num_feature":"4","num_nodes":"3","size_leaf_vector":"1"}},{"base_weights":[2.701682E-2,6.0364597E-2,-1.2043216E-1,1.1264635E-3,-5.4534573E-2],"categories":[],"categories_nodes":[],"categories_segments":[],"categories_sizes":[],"default_left":[0,0,0,0,0],"id":67,"left_children":[1,-1,3,-1,-1],"loss_changes":[1.54793E-1,0E0,2.6422575E-2,0E0,0E0],"parents":[2147483647,0,0,2,2],"right_children":[2,-1,4,-1,-1],"split_conditions":[3.95E0,6.0364597E-2,5.2E2,1.1264635E-3,-5.4534573E-2],"split_indices":[1,0,3,0,0],"split_type":[0,0,0,0,0],"sum_hessian":[4.0830526E0,1.7045856E0,2.3784673E0,1.0968887E0,1.2815785E0],"tree_param":{"num_deleted":"0","num_feature":"4","num_nodes":"5","size_leaf_vector":"1"}},{"base_weights":[-2.1929992E-3,6.4444356E-2,-4.7154684E-2],"categories":[],"categories_nodes":[],"categories_segments":[],"categories_sizes":[],"default_left":[0,0,0],"id":68,"left_children":[1,-1,-1],"loss_changes":[1.7033929E-1,0E0,0E0],"parents":[2147483647,0,0],"right_children":[2,-1,-1],"split_conditions":[1.25E0,6.4444356E-2,-4.7154684E-2],"split_indices":[2,0,0],"split_type":[0,0,0],"sum_hessian":[3.060621E0,1.1143595E0,1.9462614E0],"tree_param":{"num_deleted":"0","num_feature":"4","num_nodes":"3","size_leaf_vector":"1"}},{"base_weights":[-2.870396E-2,-5.565218E-2,3.4814477E-2],"categories":[],"categories_nodes":[],"categories_segments":[],"categories_sizes":[],"default_left":[0,0,0],"id":69,"left_children":[1,-1,-1],"loss_changes":[1.05927214E-1,0E0,0E0],"parents":[2147483647,0,0],"right_children":[2,-1,-1],"split_conditions":[2.61E0,-5.565218E-2,3.4814477E-2],"split_indices":[2,0,0],"split_type":[0,0,0],"sum_hessian":[2.7184262E0,1.1697453E0,1.5486809E0],"tree_param":{"num_deleted":"0","num_feature":"4","num_nodes":"3","size_leaf_vector":"1"}},{"base_weights":[2.0553676E-2,5.587363E-2,-1.17247604E-1,-1.5634026E-3,-5.0984953E-2],"categories":[],"categories_nodes":[],"categories_segments":[],"categories_sizes":[],"default_left":[0,0,0,0,0],"id":70,"left_children":[1,-1,3,-1,-1],"loss_changes":[1.335626E-1,0E0,1.851169E-2,0E0,0E0],"parents":[2147483647,0,0,2,2],"right_children":[2,-1,4,-1,-1],"split_conditions":[3.95E0,5.587363E-2,5.2E2,-1.5634026E-3,-5.0984953E-2],"split_indices":[1,0,3,0,0],"split_type":[0,0,0,0,0],"sum_hessian":[3.8932698E0,1.6081207E0,2.285149E0,1.0826008E0,1.2025483E0],"tree_param":{"num_deleted":"0","num_feature":"4","num_nodes":"5","size_leaf_vector":"1"}},{"base_weights":[1.580742E-3,4.5207523E-2,-6.2142678E-2],"categories":[],"categories_nodes":[],"categories_segments":[],"categories_sizes":[],"default_left":[0,0,0],"id":71,"left_children":[1,-1,-1],"loss_changes":[1.5250781E-1,0E0,0E0],"parents":[2147483647,0,0],"right_children":[2,-1,-1],"split_conditions":[2.23E0,4.5207523E-2,-6.2142678E-2],"split_indices":[0,0,0],"split_type":[0,0,0],"sum_hessian":[2.8972337E0,1.8521174E0,1.0451163E0],"tree_param":{"num_deleted":"0","num_feature":"4","num_nodes":"3","size_leaf_vector":"1"}},{"base_weights":[-2.7015029E-2,-5.014893E-2,3.7336618E-2],"categories":[],"categories_nodes":[],"categories_segments":[],"categories_sizes":[],"default_left":[0,0,0],"id":72,"left_children":[1,-1,-1],"loss_changes":[9.6936174E-2,0E0,0E0],"parents":[2147483647,0,0],"right_children":[2,-1,-1],"split_conditions":[7.6E2,-5.014893E-2,3.7336618E-2],"split_indices":[3,0,0],"split_type":[0,0,0],"sum_hessian":[2.5863392E0,1.2895658E0,1.2967736E0],"tree_param":{"num_deleted":"0","num_feature":"4","num_nodes":"3","size_leaf_vector":"1"}},{"base_weights":[2.2393245E-2,5.226777E-2,-1.0000106E-1,2.6280836E-3,-4.7621958E-2],"categories":[],"categories_nodes":[],"categories_segments":[],"categories_sizes":[],"default_left":[0,0,0,0,0],"id":73,"left_children":[1,-1,3,-1,-1],"loss_changes":[1.05553284E-1,0E0,2.222414E-2,0E0,0E0],"parents":[2147483647,0,0,2,2],"right_children":[2,-1,4,-1,-1],"split_conditions":[3.93E0,5.226777E-2,5.2E2,2.6280836E-3,-4.7621958E-2],"split_indices":[1,0,3,0,0],"split_type":[0,0,0,0,0],"sum_hessian":[3.7424185E0,1.4813246E0,2.261094E0,1.0912973E0,1.1697968E0],"tree_param":{"num_deleted":"0","num_feature":"4","num_nodes":"5","size_leaf_vector":"1"}},{"base_weights":[-2.487838E-3,5.174925E-2,-4.9441513E-2],"categories":[],"categories_nodes":[],"categories_segments":[],"categories_sizes":[],"default_left":[0,0,0],"id":74,"left_children":[1,-1,-1],"loss_changes":[1.3478166E-1,0E0,0E0],"parents":[2147483647,0,0],"right_children":[2,-1,-1],"split_conditions":[1.41E0,5.174925E-2,-4.9441513E-2],"split_indices":[2,0,0],"split_type":[0,0,0],"sum_hessian":[2.7444184E0,1.2904915E0,1.453927E0],"tree_param":{"num_deleted":"0","num_feature":"4","num_nodes":"3","size_leaf_vector":"1"}},{"base_weights":[-2.3630511E-2,-4.84883E-2,3.3852357E-2],"categories":[],"categories_nodes":[],"categories_segments":[],"categories_sizes":[],"default_left":[0,0,0],"id":75,"left_children":[1,-1,-1],"loss_changes":[8.34274E-2,0E0,0E0],"parents":[2147483647,0,0],"right_children":[2,-1,-1],"split_conditions":[7.35E2,-4.84883E-2,3.3852357E-2],"split_indices":[3,0,0],"split_type":[0,0,0],"sum_hessian":[2.4614856E0,1.1322492E0,1.3292364E0],"tree_param":{"num_deleted":"0","num_feature":"4","num_nodes":"3","size_leaf_vector":"1"}},{"base_weights":[1.8444013E-2,4.9095843E-2,-9.8028935E-2,2.3056453E-4,-4.4580556E-2],"categories":[],"categories_nodes":[],"categories_segments":[],"categories_sizes":[],"default_left":[0,0,0,0,0],"id":76,"left_children":[1,-1,3,-1,-1],"loss_changes":[9.38311E-2,0E0,1.5990995E-2,0E0,0E0],"parents":[2147483647,0,0,2,2],"right_children":[2,-1,4,-1,-1],"split_conditions":[3.93E0,4.9095843E-2,5.2E2,2.3056453E-4,-4.4580556E-2],"split_indices":[1,0,3,0,0],"split_type":[0,0,0,0,0],"sum_hessian":[3.5993533E0,1.4217553E0,2.1775978E0,1.0707062E0,1.1068916E0],"tree_param":{"num_deleted":"0","num_feature":"4","num_nodes":"5","size_leaf_vector":"1"}},{"base_weights":[-8.3836686E-4,5.0608065E-2,-4.324702E-2],"categories":[],"categories_nodes":[],"categories_segments":[],"categories_sizes":[],"default_left":[0,0,0],"id":77,"left_children":[1,-1,-1],"loss_changes":[1.1222521E-1,0E0,0E0],"parents":[2147483647,0,0],"right_children":[2,-1,-1],"split_conditions":[1.3E0,5.0608065E-2,-4.324702E-2],"split_indices":[2,0,0],"split_type":[0,0,0],"sum_hessian":[2.6180086E0,1.118214E0,1.4997946E0],"tree_param":{"num_deleted":"0","num_feature":"4","num_nodes":"3","size_leaf_vector":"1"}},{"base_weights":[-2.0952825E-2,-4.4011552E-2,3.359018E-2],"categories":[],"categories_nodes":[],"categories_segments":[],"categories_sizes":[],"default_left":[0,0,0],"id":78,"left_children":[1,-1,-1],"loss_changes":[7.251392E-2,0E0,0E0],"parents":[2147483647,0,0],"right_children":[2,-1,-1],"split_conditions":[7.6E2,-4.4011552E-2,3.359018E-2],"split_indices":[3,0,0],"split_type":[0,0,0],"sum_hessian":[2.3555317E0,1.1571097E0,1.198422E0],"tree_param":{"num_deleted":"0","num_feature":"4","num_nodes":"3","size_leaf_vector":"1"}},{"base_weights":[1.4562533E-2,4.6075698E-2,-9.613546E-2,-1.798888E-3,-4.1836E-2],"categories":[],"categories_nodes":[],"categories_segments":[],"categories_sizes":[],"default_left":[0,0,0,0,0],"id":79,"left_children":[1,-1,3,-1,-1],"loss_changes":[8.362376E-2,0E0,1.1291495E-2,0E0,0E0],"parents":[2147483647,0,0,2,2],"right_children":[2,-1,4,-1,-1],"split_conditions":[3.93E0,4.6075698E-2,5.2E2,-1.798888E-3,-4.1836E-2],"split_indices":[1,0,3,0,0],"split_type":[0,0,0,0,0],"sum_hessian":[3.4743738E0,1.3684008E0,2.105973E0,1.0530761E0,1.0528969E0],"tree_param":{"num_deleted":"0","num_feature":"4","num_nodes":"5","size_leaf_vector":"1"}},{"base_weights":[1.4673272E-3,4.074464E-2,-4.960559E-2],"categories":[],"categories_nodes":[],"categories_segments":[],"categories_sizes":[],"default_left":[0,0,0],"id":80,"left_children":[1,-1,-1],"loss_changes":[1.01132125E-1,0E0,0E0],"parents":[2147483647,0,0],"right_children":[2,-1,-1],"split_conditions":[2.01E0,4.074464E-2,-4.960559E-2],"split_indices":[0,0,0],"split_type":[0,0,0],"sum_hessian":[2.510408E0,1.4934825E0,1.0169253E0],"tree_param":{"num_deleted":"0","num_feature":"4","num_nodes":"3","size_leaf_vector":"1"}},{"base_weights":[-1.9172592E-2,-4.0424015E-2,3.2952268E-2],"categories":[],"categories_nodes":[],"categories_segments":[],"categories_sizes":[],"default_left":[0,0,0],"id":81,"left_children":[1,-1,-1],"loss_changes":[6.348434E-2,0E0,0E0],"parents":[2147483647,0,0],"right_children":[2,-1,-1],"split_conditions":[7.95E2,-4.0424015E-2,3.2952268E-2],"split_indices":[3,0,0],"split_type":[0,0,0],"sum_hessian":[2.2650316E0,1.1713037E0,1.0937278E0],"tree_param":{"num_deleted":"0","num_feature":"4","num_nodes":"3","size_leaf_vector":"1"}},{"base_weights":[1.4054376E-2,4.228753E-2,-2.681739E-2],"categories":[],"categories_nodes":[],"categories_segments":[],"categories_sizes":[],"default_left":[0,0,0],"id":82,"left_children":[1,-1,-1],"loss_changes":[6.989041E-2,0E0,0E0],"parents":[2147483647,0,0],"right_children":[2,-1,-1],"split_conditions":[3.95E0,4.228753E-2,-2.681739E-2],"split_indices":[1,0,0],"split_type":[0,0,0],"sum_hessian":[3.364059E0,1.3478835E0,2.0161755E0],"tree_param":{"num_deleted":"0","num_feature":"4","num_nodes":"3","size_leaf_vector":"1"}},{"base_weights":[3.697628E-4,4.5257512E-2,-4.116757E-2],"categories":[],"categories_nodes":[],"categories_segments":[],"categories_sizes":[],"default_left":[0,0,0],"id":83,"left_children":[1,-1,-1],"loss_changes":[9.146831E-2,0E0,0E0],"parents":[2147483647,0,0],"right_children":[2,-1,-1],"split_conditions":[1.41E0,4.5257512E-2,-4.116757E-2],"split_indices":[2,0,0],"split_type":[0,0,0],"sum_hessian":[2.4176133E0,1.1086646E0,1.3089486E0],"tree_param":{"num_deleted":"0","num_feature":"4","num_nodes":"3","size_leaf_vector":"1"}},{"base_weights":[-1.5212873E-2,-3.759958E-2,3.1666603E-2],"categories":[],"categories_nodes":[],"categories_segments":[],"categories_sizes":[],"default_left":[0,0,0],"id":84,"left_children":[1,-1,-1],"loss_changes":[5.5643648E-2,0E0,0E0],"parents":[2147483647,0,0],"right_children":[2,-1,-1],"split_conditions":[7.95E2,-3.759958E-2,3.1666603E-2],"split_indices":[3,0,0],"split_type":[0,0,0],"sum_hessian":[2.1893058E0,1.1253754E0,1.0639304E0],"tree_param":{"num_deleted":"0","num_feature":"4","num_nodes":"3","size_leaf_vector":"1"}},{"base_weights":[1.262323E-2,4.0604897E-2,-2.5383295E-2],"categories":[],"categories_nodes":[],"categories_segments":[],"categories_sizes":[],"default_left":[0,0,0],"id":85,"left_children":[1,-1,-1],"loss_changes":[6.2477667E-2,0E0,0E0],"parents":[2147483647,0,0],"right_children":[2,-1,-1],"split_conditions":[3.93E0,4.0604897E-2,-2.5383295E-2],"split_indices":[1,0,0],"split_type":[0,0,0],"sum_hessian":[3.2759335E0,1.2748526E0,2.001081E0],"tree_param":{"num_deleted":"0","num_feature":"4","num_nodes":"3","size_leaf_vector":"1"}},{"base_weights":[-1.6395078E-3,3.921398E-2,-4.2764194E-2],"categories":[],"categories_nodes":[],"categories_segments":[],"categories_sizes":[],"default_left":[0,0,0],"id":86,"left_children":[1,-1,-1],"loss_changes":[8.073709E-2,0E0,0E0],"parents":[2147483647,0,0],"right_children":[2,-1,-1],"split_conditions":[1.82E0,3.921398E-2,-4.2764194E-2],"split_indices":[0,0,0],"split_type":[0,0,0],"sum_hessian":[2.3300698E0,1.2388159E0,1.0912539E0],"tree_param":{"num_deleted":"0","num_feature":"4","num_nodes":"3","size_leaf_vector":"1"}},{"base_weights":[-1.3092976E-2,-3.5368714E-2,3.0271253E-2],"categories":[],"categories_nodes":[],"categories_segments":[],"categories_sizes":[],"default_left":[0,0,0],"id":87,"left_children":[1,-1,-1],"loss_changes":[4.926329E-2,0E0,0E0],"parents":[2147483647,0,0],"right_children":[2,-1,-1],"split_conditions":[7.95E2,-3.5368714E-2,3.0271253E-2],"split_indices":[3,0,0],"split_type":[0,0,0],"sum_hessian":[2.127685E0,1.0907296E0,1.0369556E0],"tree_param":{"num_deleted":"0","num_feature":"4","num_nodes":"3","size_leaf_vector":"1"}},{"base_weights":[1.33256195E-2,3.763527E-2,-2.2571012E-2],"categories":[],"categories_nodes":[],"categories_segments":[],"categories_sizes":[],"default_left":[0,0,0],"id":88,"left_children":[1,-1,-1],"loss_changes":[5.1074844E-2,0E0,0E0],"parents":[2147483647,0,0],"right_children":[2,-1,-1],"split_conditions":[3.93E0,3.763527E-2,-2.2571012E-2],"split_indices":[1,0,0],"split_type":[0,0,0],"sum_hessian":[3.1929524E0,1.2252213E0,1.967731E0],"tree_param":{"num_deleted":"0","num_feature":"4","num_nodes":"3","size_leaf_vector":"1"}},{"base_weights":[-4.5838514E-3,4.2496078E-2,-4.0147685E-2],"categories":[],"categories_nodes":[],"categories_segments":[],"categories_sizes":[],"default_left":[0,0,0],"id":89,"left_children":[1,-1,-1],"loss_changes":[8.049269E-2,0E0,0E0],"parents":[2147483647,0,0],"right_children":[2,-1,-1],"split_conditions":[1.41E0,4.2496078E-2,-4.0147685E-2],"split_indices":[2,0,0],"split_type":[0,0,0],"sum_hessian":[2.255866E0,1.0132899E0,1.242576E0],"tree_param":{"num_deleted":"0","num_feature":"4","num_nodes":"3","size_leaf_vector":"1"}},{"base_weights":[-1.0037427E-2,-3.3001482E-2,2.9125115E-2],"categories":[],"categories_nodes":[],"categories_segments":[],"categories_sizes":[],"default_left":[0,0,0],"id":90,"left_children":[1,-1,-1],"loss_changes":[4.3524068E-2,0E0,0E0],"parents":[2147483647,0,0],"right_children":[2,-1,-1],"split_conditions":[7.95E2,-3.3001482E-2,2.9125115E-2],"split_indices":[3,0,0],"split_type":[0,0,0],"sum_hessian":[2.0670934E0,1.0553238E0,1.0117695E0],"tree_param":{"num_deleted":"0","num_feature":"4","num_nodes":"3","size_leaf_vector":"1"}},{"base_weights":[1.1949198E-2,3.543078E-2,-2.2204343E-2],"categories":[],"categories_nodes":[],"categories_segments":[],"categories_sizes":[],"default_left":[0,0,0],"id":91,"left_children":[1,-1,-1],"loss_changes":[4.6361346E-2,0E0,0E0],"parents":[2147483647,0,0],"right_children":[2,-1,-1],"split_conditions":[3.95E0,3.543078E-2,-2.2204343E-2],"split_indices":[1,0,0],"split_type":[0,0,0],"sum_hessian":[3.122593E0,1.2299305E0,1.8926625E0],"tree_param":{"num_deleted":"0","num_feature":"4","num_nodes":"3","size_leaf_vector":"1"}},{"base_weights":[-5.802589E-3,3.3988953E-2,-3.976178E-2],"categories":[],"categories_nodes":[],"categories_segments":[],"categories_sizes":[],"default_left":[0,0,0],"id":92,"left_children":[1,-1,-1],"loss_changes":[6.307908E-2,0E0,0E0],"parents":[2147483647,0,0],"right_children":[2,-1,-1],"split_conditions":[1.82E0,3.3988953E-2,-3.976178E-2],"split_indices":[0,0,0],"split_type":[0,0,0],"sum_hessian":[2.184188E0,1.1806943E0,1.0034934E0],"tree_param":{"num_deleted":"0","num_feature":"4","num_nodes":"3","size_leaf_vector":"1"}},{"base_weights":[-8.283132E-3],"categories":[],"categories_nodes":[],"categories_segments":[],"categories_sizes":[],"default_left":[0],"id":93,"left_children":[-1],"loss_changes":[0E0],"parents":[2147483647],"right_children":[-1],"split_conditions":[-2.4849395E-3],"split_indices":[0],"split_type":[0],"sum_hessian":[2.0192986E0],"tree_param":{"num_deleted":"0","num_feature":"4","num_nodes":"1","size_leaf_vector":"1"}},{"base_weights":[1.2526437E-2,3.3360228E-2,-1.957199E-2],"categories":[],"categories_nodes":[],"categories_segments":[],"categories_sizes":[],"default_left":[0,0,0],"id":94,"left_children":[1,-1,-1],"loss_changes":[3.8385645E-2,0E0,0E0],"parents":[2147483647,0,0],"right_children":[2,-1,-1],"split_conditions":[3.93E0,3.3360228E-2,-1.957199E-2],"split_indices":[1,0,0],"split_type":[0,0,0],"sum_hessian":[3.0569127E0,1.1578436E0,1.8990691E0],"tree_param":{"num_deleted":"0","num_feature":"4","num_nodes":"3","size_leaf_vector":"1"}},{"base_weights":[-8.259327E-3,2.7998447E-2,-3.3450034E-2],"categories":[],"categories_nodes":[],"categories_segments":[],"categories_sizes":[],"default_left":[0,0,0],"id":95,"left_children":[1,-1,-1],"loss_changes":[4.318365E-2,0E0,0E0],"parents":[2147483647,0,0],"right_children":[2,-1,-1],"split_conditions":[1.75E0,2.7998447E-2,-3.3450034E-2],"split_indices":[0,0,0],"split_type":[0,0,0],"sum_hessian":[2.1252522E0,1.119598E0,1.0056542E0],"tree_param":{"num_deleted":"0","num_feature":"4","num_nodes":"3","size_leaf_vector":"1"}},{"base_weights":[-6.6867946E-3],"categories":[],"categories_nodes":[],"categories_segments":[],"categories_sizes":[],"default_left":[0],"id":96,"left_children":[-1],"loss_changes":[0E0],"parents":[2147483647],"right_children":[-1],"split_conditions":[-2.0060386E-3],"split_indices":[0],"split_type":[0],"sum_hessian":[2.0028663E0],"tree_param":{"num_deleted":"0","num_feature":"4","num_nodes":"1","size_leaf_vector":"1"}},{"base_weights":[1.2654197E-2,2.6416637E-2,-2.4945613E-2],"categories":[],"categories_nodes":[],"categories_segments":[],"categories_sizes":[],"default_left":[0,0,0],"id":97,"left_children":[1,-1,-1],"loss_changes":[3.635064E-2,0E0,0E0],"parents":[2147483647,0,0],"right_children":[2,-1,-1],"split_conditions":[6.8E2,2.6416637E-2,-2.4945613E-2],"split_indices":[3,0,0],"split_type":[0,0,0],"sum_hessian":[3.0184119E0,1.7343487E0,1.2840633E0],"tree_param":{"num_deleted":"0","num_feature":"4","num_nodes":"3","size_leaf_vector":"1"}},{"base_weights":[-9.970822E-3,2.3468943E-2,-2.8948447E-2],"categories":[],"categories_nodes":[],"categories_segments":[],"categories_sizes":[],"default_left":[0,0,0],"id":98,"left_children":[1,-1,-1],"loss_changes":[3.1098202E-2,0E0,0E0],"parents":[2147483647,0,0],"right_children":[2,-1,-1],"split_conditions":[1.73E0,2.3468943E-2,-2.8948447E-2],"split_indices":[0,0,0],"split_type":[0,0,0],"sum_hessian":[2.085831E0,1.0803778E0,1.0054532E0],"tree_param":{"num_deleted":"0","num_feature":"4","num_nodes":"3","size_leaf_vector":"1"}},{"base_weights":[-1.00466665E-2],"categories":[],"categories_nodes":[],"categories_segments":[],"categories_sizes":[],"default_left":[0],"id":99,"left_children":[-1],"loss_changes":[0E0],"parents":[2147483647],"right_children":[-1],"split_conditions":[-3.0140001E-3],"split_indices":[0],"split_type":[0],"sum_hessian":[1.9787635E0],"tree_param":{"num_deleted":"0","num_feature":"4","num_nodes":"1","size_leaf_vector":"1"}},{"base_weights":[1.1115048E-2,3.0815212E-2,-1.8104676E-2],"categories":[],"categories_nodes":[],"categories_segments":[],"categories_sizes":[],"default_left":[0,0,0],"id":100,"left_children":[1,-1,-1],"loss_changes":[3.232061E-2,0E0,0E0],"parents":[2147483647,0,0],"right_children":[2,-1,-1],"split_conditions":[3.93E0,3.0815212E-2,-1.8104676E-2],"split_indices":[1,0,0],"split_type":[0,0,0],"sum_hessian":[2.9903257E0,1.1188525E0,1.8714732E0],"tree_param":{"num_deleted":"0","num_feature":"4","num_nodes":"3","size_leaf_vector":"1"}},{"base_weights":[-4.7014426E-3,2.2044556E-2,-2.4744539E-2],"categories":[],"categories_nodes":[],"categories_segments":[],"categories_sizes":[],"default_left":[0,0,0],"id":101,"left_children":[1,-1,-1],"loss_changes":[2.4719609E-2,0E0,0E0],"parents":[2147483647,0,0],"right_children":[2,-1,-1],"split_conditions":[1.69E0,2.2044556E-2,-2.4744539E-2],"split_indices":[0,0,0],"split_type":[0,0,0],"sum_hessian":[2.068297E0,1.0590377E0,1.0092593E0],"tree_param":{"num_deleted":"0","num_feature":"4","num_nodes":"3","size_leaf_vector":"1"}},{"base_weights":[-8.246876E-3],"categories":[],"categories_nodes":[],"categories_segments":[],"categories_sizes":[],"default_left":[0],"id":102,"left_children":[-1],"loss_changes":[0E0],"parents":[2147483647],"right_children":[-1],"split_conditions":[-2.474063E-3],"split_indices":[0],"split_type":[0],"sum_hessian":[1.9670557E0],"tree_param":{"num_deleted":"0","num_feature":"4","num_nodes":"1","size_leaf_vector":"1"}},{"base_weights":[1.1169407E-2,2.5625521E-2,-2.4686554E-2],"categories":[],"categories_nodes":[],"categories_segments":[],"categories_sizes":[],"default_left":[0,0,0],"id":103,"left_children":[1,-1,-1],"loss_changes":[3.4512673E-2,0E0,0E0],"parents":[2147483647,0,0],"right_children":[2,-1,-1],"split_conditions":[6.8E2,2.5625521E-2,-2.4686554E-2],"split_indices":[3,0,0],"split_type":[0,0,0],"sum_hessian":[2.9606714E0,1.6978292E0,1.2628422E0],"tree_param":{"num_deleted":"0","num_feature":"4","num_nodes":"3","size_leaf_vector":"1"}},{"base_weights":[-6.5022595E-3,1.7423103E-2,-2.0293336E-2],"categories":[],"categories_nodes":[],"categories_segments":[],"categories_sizes":[],"default_left":[0,0,0],"id":104,"left_children":[1,-1,-1],"loss_changes":[1.5933804E-2,0E0,0E0],"parents":[2147483647,0,0],"right_children":[2,-1,-1],"split_conditions":[1.68E0,1.7423103E-2,-2.0293336E-2],"split_indices":[0,0,0],"split_type":[0,0,0],"sum_hessian":[2.0404367E0,1.0167077E0,1.0237291E0],"tree_param":{"num_deleted":"0","num_feature":"4","num_nodes":"3","size_leaf_vector":"1"}},{"base_weights":[-1.1280924E-2],"categories":[],"categories_nodes":[],"categories_segments":[],"categories_sizes":[],"default_left":[0],"id":105,"left_children":[-1],"loss_changes":[0E0],"parents":[2147483647],"right_children":[-1],"split_conditions":[-3.3842775E-3],"split_indices":[0],"split_type":[0],"sum_hessian":[1.9467015E0],"tree_param":{"num_deleted":"0","num_feature":"4","num_nodes":"1","size_leaf_vector":"1"}},{"base_weights":[9.597021E-3,2.3497306E-2,-2.2947378E-2],"categories":[],"categories_nodes":[],"categories_segments":[],"categories_sizes":[],"default_left":[0,0,0],"id":106,"left_children":[1,-1,-1],"loss_changes":[2.9297845E-2,0E0,0E0],"parents":[2147483647,0,0],"right_children":[2,-1,-1],"split_conditions":[6.8E2,2.3497306E-2,-2.2947378E-2],"split_indices":[3,0,0],"split_type":[0,0,0],"sum_hessian":[2.9391963E0,1.6845478E0,1.2546486E0],"tree_param":{"num_deleted":"0","num_feature":"4","num_nodes":"3","size_leaf_vector":"1"}},{"base_weights":[-1.5050408E-3,1.749114E-2,-1.815401E-2],"categories":[],"categories_nodes":[],"categories_segments":[],"categories_sizes":[],"default_left":[0,0,0],"id":107,"left_children":[1,-1,-1],"loss_changes":[1.4228924E-2,0E0,0E0],"parents":[2147483647,0,0],"right_children":[2,-1,-1],"split_conditions":[1.68E0,1.749114E-2,-1.815401E-2],"split_indices":[0,0,0],"split_type":[0,0,0],"sum_hessian":[2.0320492E0,1.0151087E0,1.0169404E0],"tree_param":{"num_deleted":"0","num_feature":"4","num_nodes":"3","size_leaf_vector":"1"}},{"base_weights":[-1.37456115E-2],"categories":[],"categories_nodes":[],"categories_segments":[],"categories_sizes":[],"default_left":[0],"id":108,"left_children":[-1],"loss_changes":[0E0],"parents":[2147483647],"right_children":[-1],"split_conditions":[-4.1236836E-3],"split_indices":[0],"split_type":[0],"sum_hessian":[1.9283088E0],"tree_param":{"num_deleted":"0","num_feature":"4","num_nodes":"1","size_leaf_vector":"1"}},{"base_weights":[8.227772E-3,2.929195E-2,-1.8045075E-2],"categories":[],"categories_nodes":[],"categories_segments":[],"categories_sizes":[],"default_left":[0,0,0],"id":109,"left_children":[1,-1,-1],"loss_changes":[2.9843148E-2,0E0,0E0],"parents":[2147483647,0,0],"right_children":[2,-1,-1],"split_conditions":[3.93E0,2.929195E-2,-1.8045075E-2],"split_indices":[1,0,0],"split_type":[0,0,0],"sum_hessian":[2.9206402E0,1.0802059E0,1.8404342E0],"tree_param":{"num_deleted":"0","num_feature":"4","num_nodes":"3","size_leaf_vector":"1"}},{"base_weights":[2.643177E-3,1.7437566E-2,-1.6257249E-2],"categories":[],"categories_nodes":[],"categories_segments":[],"categories_sizes":[],"default_left":[0,0,0],"id":110,"left_children":[1,-1,-1],"loss_changes":[1.26888165E-2,0E0,0E0],"parents":[2147483647,0,0],"right_children":[2,-1,-1],"split_conditions":[1.68E0,1.7437566E-2,-1.6257249E-2],"split_indices":[0,0,0],"split_type":[0,0,0],"sum_hessian":[2.0251048E0,1.0132443E0,1.0118606E0],"tree_param":{"num_deleted":"0","num_feature":"4","num_nodes":"3","size_leaf_vector":"1"}},{"base_weights":[-1.1434184E-2],"categories":[],"categories_nodes":[],"categories_segments":[],"categories_sizes":[],"default_left":[0],"id":111,"left_children":[-1],"loss_changes":[0E0],"parents":[2147483647],"right_children":[-1],"split_conditions":[-3.4302555E-3],"split_indices":[0],"split_type":[0],"sum_hessian":[1.9193639E0],"tree_param":{"num_deleted":"0","num_feature":"4","num_nodes":"1","size_leaf_vector":"1"}},{"base_weights":[8.477255E-3,2.2976447E-2,-2.2869345E-2],"categories":[],"categories_nodes":[],"categories_segments":[],"categories_sizes":[],"default_left":[0,0,0],"id":112,"left_children":[1,-1,-1],"loss_changes":[2.831772E-2,0E0,0E0],"parents":[2147483647,0,0],"right_children":[2,-1,-1],"split_conditions":[6.8E2,2.2976447E-2,-2.2869345E-2],"split_indices":[3,0,0],"split_type":[0,0,0],"sum_hessian":[2.8961887E0,1.6585062E0,1.2376826E0],"tree_param":{"num_deleted":"0","num_feature":"4","num_nodes":"3","size_leaf_vector":"1"}},{"base_weights":[1.1705088E-4],"categories":[],"categories_nodes":[],"categories_segments":[],"categories_sizes":[],"default_left":[0],"id":113,"left_children":[-1],"loss_changes":[0E0],"parents":[2147483647],"right_children":[-1],"split_conditions":[3.5115263E-5],"split_indices":[0],"split_type":[0],"sum_hessian":[2.0045261E0],"tree_param":{"num_deleted":"0","num_feature":"4","num_nodes":"1","size_leaf_vector":"1"}},{"base_weights":[-1.3030875E-2],"categories":[],"categories_nodes":[],"categories_segments":[],"categories_sizes":[],"default_left":[0],"id":114,"left_children":[-1],"loss_changes":[0E0],"parents":[2147483647],"right_children":[-1],"split_conditions":[-3.9092624E-3],"split_indices":[0],"split_type":[0],"sum_hessian":[1.9041886E0],"tree_param":{"num_deleted":"0","num_feature":"4","num_nodes":"1","size_leaf_vector":"1"}},{"base_weights":[6.6304915E-3,2.7574614E-2,-1.7390128E-2],"categories":[],"categories_nodes":[],"categories_segments":[],"categories_sizes":[],"default_left":[0,0,0],"id":115,"left_children":[1,-1,-1],"loss_changes":[2.673021E-2,0E0,0E0],"parents":[2147483647,0,0],"right_children":[2,-1,-1],"split_conditions":[3.93E0,2.7574614E-2,-1.7390128E-2],"split_indices":[1,0,0],"split_type":[0,0,0],"sum_hessian":[2.8848026E0,1.0610546E0,1.823748E0],"tree_param":{"num_deleted":"0","num_feature":"4","num_nodes":"3","size_leaf_vector":"1"}},{"base_weights":[4.0192893E-3],"categories":[],"categories_nodes":[],"categories_segments":[],"categories_sizes":[],"default_left":[0],"id":116,"left_children":[-1],"loss_changes":[0E0],"parents":[2147483647],"right_children":[-1],"split_conditions":[1.2057868E-3],"split_indices":[0],"split_type":[0],"sum_hessian":[2.007221E0],"tree_param":{"num_deleted":"0","num_feature":"4","num_nodes":"1","size_leaf_vector":"1"}},{"base_weights":[-1.0040375E-2],"categories":[],"categories_nodes":[],"categories_segments":[],"categories_sizes":[],"default_left":[0],"id":117,"left_children":[-1],"loss_changes":[0E0],"parents":[2147483647],"right_children":[-1],"split_conditions":[-3.0121128E-3],"split_indices":[0],"split_type":[0],"sum_hessian":[1.8984985E0],"tree_param":{"num_deleted":"0","num_feature":"4","num_nodes":"1","size_leaf_vector":"1"}},{"base_weights":[6.5175695E-3,2.1881457E-2,-2.2611914E-2],"categories":[],"categories_nodes":[],"categories_segments":[],"categories_sizes":[],"default_left":[0,0,0],"id":118,"left_children":[1,-1,-1],"loss_changes":[2.6534557E-2,0E0,0E0],"parents":[2147483647,0,0],"right_children":[2,-1,-1],"split_conditions":[6.8E2,2.1881457E-2,-2.2611914E-2],"split_indices":[3,0,0],"split_type":[0,0,0],"sum_hessian":[2.867643E0,1.6437424E0,1.2239007E0],"tree_param":{"num_deleted":"0","num_feature":"4","num_nodes":"3","size_leaf_vector":"1"}},{"base_weights":[1.2997122E-3],"categories":[],"categories_nodes":[],"categories_segments":[],"categories_sizes":[],"default_left":[0],"id":119,"left_children":[-1],"loss_changes":[0E0],"parents":[2147483647],"right_children":[-1],"split_conditions":[3.8991368E-4],"split_indices":[0],"split_type":[0],"sum_hessian":[1.9957995E0],"tree_param":{"num_deleted":"0","num_feature":"4","num_nodes":"1","size_leaf_vector":"1"}},{"base_weights":[-1.1762197E-2],"categories":[],"categories_nodes":[],"categories_segments":[],"categories_sizes":[],"default_left":[0],"id":120,"left_children":[-1],"loss_changes":[0E0],"parents":[2147483647],"right_children":[-1],"split_conditions":[-3.5286592E-3],"split_indices":[0],"split_type":[0],"sum_hessian":[1.8840798E0],"tree_param":{"num_deleted":"0","num_feature":"4","num_nodes":"1","size_leaf_vector":"1"}},{"base_weights":[4.996548E-3,2.595614E-2,-1.7292328E-2],"categories":[],"categories_nodes":[],"categories_segments":[],"categories_sizes":[],"default_left":[0,0,0],"id":121,"left_children":[1,-1,-1],"loss_changes":[2.468281E-2,0E0,0E0],"parents":[2147483647,0,0],"right_children":[2,-1,-1],"split_conditions":[3.95E0,2.595614E-2,-1.7292328E-2],"split_indices":[1,0,0],"split_type":[0,0,0],"sum_hessian":[2.8570075E0,1.0756915E0,1.7813159E0],"tree_param":{"num_deleted":"0","num_feature":"4","num_nodes":"3","size_leaf_vector":"1"}},{"base_weights":[4.8859E-3],"categories":[],"categories_nodes":[],"categories_segments":[],"categories_sizes":[],"default_left":[0],"id":122,"left_children":[-1],"loss_changes":[0E0],"parents":[2147483647],"right_children":[-1],"split_conditions":[1.4657701E-3],"split_indices":[0],"split_type":[0],"sum_hessian":[1.9986148E0],"tree_param":{"num_deleted":"0","num_feature":"4","num_nodes":"1","size_leaf_vector":"1"}},{"base_weights":[-8.8678645E-3],"categories":[],"categories_nodes":[],"categories_segments":[],"categories_sizes":[],"default_left":[0],"id":123,"left_children":[-1],"loss_changes":[0E0],"parents":[2147483647],"right_children":[-1],"split_conditions":[-2.6603595E-3],"split_indices":[0],"split_type":[0],"sum_hessian":[1.8792053E0],"tree_param":{"num_deleted":"0","num_feature":"4","num_nodes":"1","size_leaf_vector":"1"}},{"base_weights":[5.052894E-3,2.0948729E-2,-2.22819E-2],"categories":[],"categories_nodes":[],"categories_segments":[],"categories_sizes":[],"default_left":[0,0,0],"id":124,"left_children":[1,-1,-1],"loss_changes":[2.4922958E-2,0E0,0E0],"parents":[2147483647,0,0],"right_children":[2,-1,-1],"split_conditions":[6.8E2,2.0948729E-2,-2.22819E-2],"split_indices":[3,0,0],"split_type":[0,0,0],"sum_hessian":[2.8409674E0,1.6298105E0,1.2111571E0],"tree_param":{"num_deleted":"0","num_feature":"4","num_nodes":"3","size_leaf_vector":"1"}},{"base_weights":[2.0499094E-3],"categories":[],"categories_nodes":[],"categories_segments":[],"categories_sizes":[],"default_left":[0],"id":125,"left_children":[-1],"loss_changes":[0E0],"parents":[2147483647],"right_children":[-1],"split_conditions":[6.1497284E-4],"split_indices":[0],"split_type":[0],"sum_hessian":[1.9875805E0],"tree_param":{"num_deleted":"0","num_feature":"4","num_nodes":"1","size_leaf_vector":"1"}},{"base_weights":[-1.0680675E-2],"categories":[],"categories_nodes":[],"categories_segments":[],"categories_sizes":[],"default_left":[0],"id":126,"left_children":[-1],"loss_changes":[0E0],"parents":[2147483647],"right_children":[-1],"split_conditions":[-3.2042025E-3],"split_indices":[0],"split_type":[0],"sum_hessian":[1.8654841E0],"tree_param":{"num_deleted":"0","num_feature":"4","num_nodes":"1","size_leaf_vector":"1"}},{"base_weights":[3.7770532E-3,2.5053272E-2,-1.6705291E-2],"categories":[],"categories_nodes":[],"categories_segments":[],"categories_sizes":[],"default_left":[0,0,0],"id":127,"left_children":[1,-1,-1],"loss_changes":[2.2813415E-2,0E0,0E0],"parents":[2147483647,0,0],"right_children":[2,-1,-1],"split_conditions":[3.93E0,2.5053272E-2,-1.6705291E-2],"split_indices":[1,0,0],"split_type":[0,0,0],"sum_hessian":[2.8310165E0,1.0365769E0,1.7944398E0],"tree_param":{"num_deleted":"0","num_feature":"4","num_nodes":"3","size_leaf_vector":"1"}},{"base_weights":[5.3955466E-3],"categories":[],"categories_nodes":[],"categories_segments":[],"categories_sizes":[],"default_left":[0],"id":128,"left_children":[-1],"loss_changes":[0E0],"parents":[2147483647],"right_children":[-1],"split_conditions":[1.618664E-3],"split_indices":[0],"split_type":[0],"sum_hessian":[1.99049E0],"tree_param":{"num_deleted":"0","num_feature":"4","num_nodes":"1","size_leaf_vector":"1"}},{"base_weights":[-8.075666E-3],"categories":[],"categories_nodes":[],"categories_segments":[],"categories_sizes":[],"default_left":[0],"id":129,"left_children":[-1],"loss_changes":[0E0],"parents":[2147483647],"right_children":[-1],"split_conditions":[-2.4226997E-3],"split_indices":[0],"split_type":[0],"sum_hessian":[1.8609833E0],"tree_param":{"num_deleted":"0","num_feature":"4","num_nodes":"1","size_leaf_vector":"1"}},{"base_weights":[4.0676687E-3,2.0154094E-2,-2.1878654E-2],"categories":[],"categories_nodes":[],"categories_segments":[],"categories_sizes":[],"default_left":[0,0,0],"id":130,"left_children":[1,-1,-1],"loss_changes":[2.3443248E-2,0E0,0E0],"parents":[2147483647,0,0],"right_children":[2,-1,-1],"split_conditions":[6.8E2,2.0154094E-2,-2.1878654E-2],"split_indices":[3,0,0],"split_type":[0,0,0],"sum_hessian":[2.8160393E0,1.617606E0,1.1984333E0],"tree_param":{"num_deleted":"0","num_feature":"4","num_nodes":"3","size_leaf_vector":"1"}},{"base_weights":[2.5443542E-3],"categories":[],"categories_nodes":[],"categories_segments":[],"categories_sizes":[],"default_left":[0],"id":131,"left_children":[-1],"loss_changes":[0E0],"parents":[2147483647],"right_children":[-1],"split_conditions":[7.633063E-4],"split_indices":[0],"split_type":[0],"sum_hessian":[1.9801928E0],"tree_param":{"num_deleted":"0","num_feature":"4","num_nodes":"1","size_leaf_vector":"1"}},{"base_weights":[-9.921854E-3],"categories":[],"categories_nodes":[],"categories_segments":[],"categories_sizes":[],"default_left":[0],"id":132,"left_children":[-1],"loss_changes":[0E0],"parents":[2147483647],"right_children":[-1],"split_conditions":[-2.9765565E-3],"split_indices":[0],"split_type":[0],"sum_hessian":[1.8479093E0],"tree_param":{"num_deleted":"0","num_feature":"4","num_nodes":"1","size_leaf_vector":"1"}},{"base_weights":[2.9576307E-3,2.3989424E-2,-1.6266683E-2],"categories":[],"categories_nodes":[],"categories_segments":[],"categories_sizes":[],"default_left":[0,0,0],"id":133,"left_children":[1,-1,-1],"loss_changes":[2.1097822E-2,0E0,0E0],"parents":[2147483647,0,0],"right_children":[2,-1,-1],"split_conditions":[3.93E0,2.3989424E-2,-1.6266683E-2],"split_indices":[1,0,0],"split_type":[0,0,0],"sum_hessian":[2.8067153E0,1.0262011E0,1.7805141E0],"tree_param":{"num_deleted":"0","num_feature":"4","num_nodes":"3","size_leaf_vector":"1"}},{"base_weights":[5.698412E-3],"categories":[],"categories_nodes":[],"categories_segments":[],"categories_sizes":[],"default_left":[0],"id":134,"left_children":[-1],"loss_changes":[0E0],"parents":[2147483647],"right_children":[-1],"split_conditions":[1.7095237E-3],"split_indices":[0],"split_type":[0],"sum_hessian":[1.9831706E0],"tree_param":{"num_deleted":"0","num_feature":"4","num_nodes":"1","size_leaf_vector":"1"}},{"base_weights":[-7.44616E-3],"categories":[],"categories_nodes":[],"categories_segments":[],"categories_sizes":[],"default_left":[0],"id":135,"left_children":[-1],"loss_changes":[0E0],"parents":[2147483647],"right_children":[-1],"split_conditions":[-2.2338482E-3],"split_indices":[0],"split_type":[0],"sum_hessian":[1.843894E0],"tree_param":{"num_deleted":"0","num_feature":"4","num_nodes":"1","size_leaf_vector":"1"}},{"base_weights":[3.3526153E-3,1.945163E-2,-2.1443976E-2],"categories":[],"categories_nodes":[],"categories_segments":[],"categories_sizes":[],"default_left":[0,0,0],"id":136,"left_children":[1,-1,-1],"loss_changes":[2.2085484E-2,0E0,0E0],"parents":[2147483647,0,0],"right_children":[2,-1,-1],"split_conditions":[6.8E2,1.945163E-2,-2.1443976E-2],"split_indices":[3,0,0],"split_type":[0,0,0],"sum_hessian":[2.7926958E0,1.6063702E0,1.1863254E0],"tree_param":{"num_deleted":"0","num_feature":"4","num_nodes":"3","size_leaf_vector":"1"}},{"base_weights":[2.845122E-3],"categories":[],"categories_nodes":[],"categories_segments":[],"categories_sizes":[],"default_left":[0],"id":137,"left_children":[-1],"loss_changes":[0E0],"parents":[2147483647],"right_children":[-1],"split_conditions":[8.5353665E-4],"split_indices":[0],"split_type":[0],"sum_hessian":[1.97338E0],"tree_param":{"num_deleted":"0","num_feature":"4","num_nodes":"1","size_leaf_vector":"1"}},{"base_weights":[-9.304146E-3],"categories":[],"categories_nodes":[],"categories_segments":[],"categories_sizes":[],"default_left":[0],"id":138,"left_children":[-1],"loss_changes":[0E0],"parents":[2147483647],"right_children":[-1],"split_conditions":[-2.791244E-3],"split_indices":[0],"split_type":[0],"sum_hessian":[1.831416E0],"tree_param":{"num_deleted":"0","num_feature":"4","num_nodes":"1","size_leaf_vector":"1"}},{"base_weights":[2.364417E-3,2.2806454E-2,-1.6018203E-2],"categories":[],"categories_nodes":[],"categories_segments":[],"categories_sizes":[],"default_left":[0,0,0],"id":139,"left_children":[1,-1,-1],"loss_changes":[1.95998E-2,0E0,0E0],"parents":[2147483647,0,0],"right_children":[2,-1,-1],"split_conditions":[3.95E0,2.2806454E-2,-1.6018203E-2],"split_indices":[1,0,0],"split_type":[0,0,0],"sum_hessian":[2.7839532E0,1.0428869E0,1.7410663E0],"tree_param":{"num_deleted":"0","num_feature":"4","num_nodes":"3","size_leaf_vector":"1"}},{"base_weights":[5.844853E-3],"categories":[],"categories_nodes":[],"categories_segments":[],"categories_sizes":[],"default_left":[0],"id":140,"left_children":[-1],"loss_changes":[0E0],"parents":[2147483647],"right_children":[-1],"split_conditions":[1.753456E-3],"split_indices":[0],"split_type":[0],"sum_hessian":[1.9764144E0],"tree_param":{"num_deleted":"0","num_feature":"4","num_nodes":"1","size_leaf_vector":"1"}},{"base_weights":[-6.835033E-3],"categories":[],"categories_nodes":[],"categories_segments":[],"categories_sizes":[],"default_left":[0],"id":141,"left_children":[-1],"loss_changes":[0E0],"parents":[2147483647],"right_children":[-1],"split_conditions":[-2.0505101E-3],"split_indices":[0],"split_type":[0],"sum_hessian":[1.8279806E0],"tree_param":{"num_deleted":"0","num_feature":"4","num_nodes":"1","size_leaf_vector":"1"}},{"base_weights":[2.771609E-3,1.8811475E-2,-2.1004273E-2],"categories":[],"categories_nodes":[],"categories_segments":[],"categories_sizes":[],"default_left":[0,0,0],"id":142,"left_children":[1,-1,-1],"loss_changes":[2.0839388E-2,0E0,0E0],"parents":[2147483647,0,0],"right_children":[2,-1,-1],"split_conditions":[6.8E2,1.8811475E-2,-2.1004273E-2],"split_indices":[3,0,0],"split_type":[0,0,0],"sum_hessian":[2.7707548E0,1.5954944E0,1.1752604E0],"tree_param":{"num_deleted":"0","num_feature":"4","num_nodes":"3","size_leaf_vector":"1"}},{"base_weights":[2.992225E-3],"categories":[],"categories_nodes":[],"categories_segments":[],"categories_sizes":[],"default_left":[0],"id":143,"left_children":[-1],"loss_changes":[0E0],"parents":[2147483647],"right_children":[-1],"split_conditions":[8.9766755E-4],"split_indices":[0],"split_type":[0],"sum_hessian":[1.9669086E0],"tree_param":{"num_deleted":"0","num_feature":"4","num_nodes":"1","size_leaf_vector":"1"}},{"base_weights":[-8.702811E-3],"categories":[],"categories_nodes":[],"categories_segments":[],"categories_sizes":[],"default_left":[0],"id":144,"left_children":[-1],"loss_changes":[0E0],"parents":[2147483647],"right_children":[-1],"split_conditions":[-2.6108434E-3],"split_indices":[0],"split_type":[0],"sum_hessian":[1.8160675E0],"tree_param":{"num_deleted":"0","num_feature":"4","num_nodes":"1","size_leaf_vector":"1"}},{"base_weights":[1.8837601E-3,2.2173867E-2,-1.5396346E-2],"categories":[],"categories_nodes":[],"categories_segments":[],"categories_sizes":[],"default_left":[0,0,0],"id":145,"left_children":[1,-1,-1],"loss_changes":[1.8212538E-2,0E0,0E0],"parents":[2147483647,0,0],"right_children":[2,-1,-1],"split_conditions":[3.93E0,2.2173867E-2,-1.5396346E-2],"split_indices":[1,0,0],"split_type":[0,0,0],"sum_hessian":[2.7625525E0,1.0082991E0,1.7542533E0],"tree_param":{"num_deleted":"0","num_feature":"4","num_nodes":"3","size_leaf_vector":"1"}},{"base_weights":[5.8658305E-3],"categories":[],"categories_nodes":[],"categories_segments":[],"categories_sizes":[],"default_left":[0],"id":146,"left_children":[-1],"loss_changes":[0E0],"parents":[2147483647],"right_children":[-1],"split_conditions":[1.7597493E-3],"split_indices":[0],"split_type":[0],"sum_hessian":[1.9699893E0],"tree_param":{"num_deleted":"0","num_feature":"4","num_nodes":"1","size_leaf_vector":"1"}},{"base_weights":[-6.4324625E-3],"categories":[],"categories_nodes":[],"categories_segments":[],"categories_sizes":[],"default_left":[0],"id":147,"left_children":[-1],"loss_changes":[0E0],"parents":[2147483647],"right_children":[-1],"split_conditions":[-1.9297388E-3],"split_indices":[0],"split_type":[0],"sum_hessian":[1.8128548E0],"tree_param":{"num_deleted":"0","num_feature":"4","num_nodes":"1","size_leaf_vector":"1"}},{"base_weights":[2.4003987E-3,1.8236399E-2,-2.0540498E-2],"categories":[],"categories_nodes":[],"categories_segments":[],"categories_sizes":[],"default_left":[0,0,0],"id":148,"left_children":[1,-1,-1],"loss_changes":[1.9679666E-2,0E0,0E0],"parents":[2147483647,0,0],"right_children":[2,-1,-1],"split_conditions":[6.8E2,1.8236399E-2,-2.0540498E-2],"split_indices":[3,0,0],"split_type":[0,0,0],"sum_hessian":[2.7501593E0,1.5858489E0,1.1643103E0],"tree_param":{"num_deleted":"0","num_feature":"4","num_nodes":"3","size_leaf_vector":"1"}},{"base_weights":[3.0703507E-3],"categories":[],"categories_nodes":[],"categories_segments":[],"categories_sizes":[],"default_left":[0],"id":149,"left_children":[-1],"loss_changes":[0E0],"parents":[2147483647],"right_children":[-1],"split_conditions":[9.2110527E-4],"split_indices":[0],"split_type":[0],"sum_hessian":[1.9610856E0],"tree_param":{"num_deleted":"0","num_feature":"4","num_nodes":"1","size_leaf_vector":"1"}},{"base_weights":[-8.2834875E-3],"categories":[],"categories_nodes":[],"categories_segments":[],"categories_sizes":[],"default_left":[0],"id":150,"left_children":[-1],"loss_changes":[0E0],"parents":[2147483647],"right_children":[-1],"split_conditions":[-2.4850464E-3],"split_indices":[0],"split_type":[0],"sum_hessian":[1.8014567E0],"tree_param":{"num_deleted":"0","num_feature":"4","num_nodes":"1","size_leaf_vector":"1"}},{"base_weights":[1.5788547E-3,2.1156913E-2,-1.5121068E-2],"categories":[],"categories_nodes":[],"categories_segments":[],"categories_sizes":[],"default_left":[0,0,0],"id":151,"left_children":[1,-1,-1],"loss_changes":[1.6967168E-2,0E0,0E0],"parents":[2147483647,0,0],"right_children":[2,-1,-1],"split_conditions":[3.95E0,2.1156913E-2,-1.5121068E-2],"split_indices":[1,0,0],"split_type":[0,0,0],"sum_hessian":[2.7424626E0,1.0255741E0,1.7168884E0],"tree_param":{"num_deleted":"0","num_feature":"4","num_nodes":"3","size_leaf_vector":"1"}},{"base_weights":[5.835055E-3],"categories":[],"categories_nodes":[],"categories_segments":[],"categories_sizes":[],"default_left":[0],"id":152,"left_children":[-1],"loss_changes":[0E0],"parents":[2147483647],"right_children":[-1],"split_conditions":[1.7505166E-3],